%YAML:1.0
my_svm: !!opencv-ml-svm
   svm_type: C_SVC
   kernel: { type:LINEAR }
   C: 1.
   term_criteria: { epsilon:2.2204460492503131e-16, iterations:100000 }
   var_all: 100
   var_count: 100
   class_count: 2
   class_labels: !!opencv-matrix
      rows: 1
      cols: 2
      dt: i
      data: [ -1, 1 ]
   sv_total: 522
   support_vectors:
      - [ 5.26315793e-02, 0., 1.30434781e-01, 0., 0., 1.99999988e-01, 0.,
          4.11764711e-01, 0., 1.53846160e-01, 0., 3.72093022e-01,
          2.75862068e-01, 0., 0., 3.63636374e-01, 2.85714269e-02,
          8.69565159e-02, 8.69565159e-02, 1.92307711e-01, 0.,
          1.30434781e-01, 0., 1.66666657e-01, 7.69230798e-02, 0., 0., 0.,
          6.12244904e-02, 2.77777761e-02, 8.95522460e-02, 0., 0., 0.,
          1.33333325e-01, 0., 0., 0., 0., 6.89655170e-02, 0.,
          6.81818202e-02, 0., 2.22222209e-01, 0., 0., 0., 3.52941155e-01,
          9.09090936e-02, 2.70270258e-02, 0., 0., 0., 0., 3.70370373e-02,
          5.26315793e-02, 0., 2.88888901e-01, 0., 2.85714269e-02,
          1.40845068e-02, 0., 0., 0., 0., 3.33333313e-01, 4.61538494e-01,
          0., 0., 1.73913032e-01, 0., 0., 2.22222228e-02, 0., 0.,
          5.88235319e-01, 0., 1.90476179e-01, 1.57894745e-01,
          9.09090936e-02, 0., 0., 0., 0., 2.72727281e-01, 0., 0.,
          1.99999988e-01, 0., 2.70270258e-02, 2.30769247e-01, 0., 0., 0.,
          0., 0., 0., 0., 2.50000000e-01, 0. ]
      - [ 5.26315793e-02, 1.11111119e-01, 0., 0., 1.17647052e-01,
          9.99999940e-02, 2.63157904e-01, 0., 5.55555582e-01,
          3.07692319e-01, 0., 0., 0., 1.20000005e-01, 0., 0., 0., 0.,
          4.34782580e-02, 3.84615399e-02, 7.69230798e-02, 0., 0.,
          4.16666642e-02, 0., 0., 7.14285672e-02, 0., 0., 0., 0., 0., 0.,
          0., 3.00000012e-01, 0., 0., 0., 2.35294104e-01, 0., 0., 0., 0.,
          0., 6.66666627e-02, 0., 0., 0., 6.06060624e-02, 5.40540516e-02,
          1.33333325e-01, 2.22222209e-01, 1.49999991e-01, 6.66666627e-02,
          0., 0., 0., 6.66666701e-02, 0., 0., 0., 4.16666642e-02,
          4.34782580e-02, 0., 2.91666687e-01, 0., 0., 2.80000001e-01,
          2.30769247e-01, 1.30434781e-01, 1.79487199e-01, 0., 0.,
          7.09677398e-01, 0., 0., 1.66666657e-01, 0., 1.05263159e-01,
          3.63636374e-01, 7.69230798e-02, 0., 0., 3.27868834e-02,
          1.36363640e-01, 0., 0., 1.99999988e-01, 2.41379321e-01, 0.,
          2.30769247e-01, 2.63157904e-01, 2.35294104e-01, 2.35294104e-01,
          0., 8.00000012e-01, 0., 2.38095239e-01, 0., 4.34782580e-02 ]
      - [ 0., 0., 0., 0., 0., 0., 1.05263159e-01, 0., 0., 0., 0.,
          6.97674453e-02, 0., 3.99999991e-02, 6.00000024e-01,
          2.72727281e-01, 0., 4.34782580e-02, 0., 0., 0., 0.,
          2.08333321e-02, 1.66666657e-01, 0., 0., 0., 0., 3.87755096e-01,
          0., 0., 0., 0., 0., 1.33333325e-01, 0., 0., 0., 5.88235259e-02,
          0., 0., 2.95454532e-01, 0., 0., 1.33333325e-01, 0., 0., 0., 0.,
          0., 0., 0., 0., 0., 1.48148149e-01, 0., 0., 0., 0., 0.,
          5.07042229e-01, 1.25000000e-01, 0., 0., 0., 5.00000000e-01, 0.,
          0., 0., 4.34782580e-02, 0., 0., 5.99999964e-01, 0., 0., 0., 0.,
          0., 0., 0., 5.38461566e-01, 0., 0., 0., 4.54545468e-02, 0., 0.,
          0., 0., 0., 0., 0., 0., 0., 2.42424250e-01, 0., 0., 0.,
          3.49999994e-01, 0. ]
      - [ 1.57894745e-01, 0., 0., 0., 0., 0., 0., 0., 0., 0., 0.,
          1.16279073e-01, 5.17241359e-01, 0., 0., 4.54545468e-01,
          1.42857149e-01, 0., 0., 0., 0., 0., 0., 0., 0., 0.,
          7.14285672e-02, 0., 1.83673471e-01, 2.50000000e-01,
          2.38805979e-01, 0., 0., 1., 0., 0., 0., 1.79487199e-01, 0., 0.,
          0., 1.13636367e-01, 2.22222209e-01, 1.11111104e-01, 0., 0., 0.,
          5.88235259e-02, 0., 0., 0., 0., 0., 0., 0., 0., 0., 0.,
          1.11111104e-01, 0., 1.26760557e-01, 8.33333284e-02, 0., 0.,
          1.25000000e-01, 4.16666687e-01, 1.53846160e-01, 0., 0., 0., 0.,
          0., 6.66666701e-02, 0., 0., 0., 0., 0., 0., 5.45454562e-01, 0.,
          5.88235259e-02, 0., 0., 0., 0., 0., 0., 0., 2.70270258e-02, 0.,
          1.05263159e-01, 0., 0., 0., 0., 0., 0., 2.49999985e-02, 0. ]
      - [ 0., 3.70370373e-02, 0., 0., 0., 0., 0., 0., 2.77777791e-01,
          7.69230843e-01, 1.56250015e-01, 0., 0., 2.80000001e-01, 0., 0.,
          0., 1.30434781e-01, 3.04347843e-01, 0., 0., 0., 2.70833313e-01,
          0., 2.30769247e-01, 0., 0., 5.88235259e-02, 0., 0., 0., 0., 0.,
          0., 1.66666672e-01, 5.55555522e-02, 0., 0., 1.17647052e-01,
          3.44827585e-02, 7.14285672e-02, 0., 0., 0., 1.66666672e-01,
          8.69565159e-02, 0., 5.88235259e-02, 0., 8.10810849e-02, 0., 0.,
          0., 1.00000001e-01, 0., 0., 0., 0., 2.77777761e-02, 0., 0., 0.,
          0., 4.65116277e-02, 3.75000000e-01, 0., 3.84615399e-02,
          2.00000003e-01, 1.15384623e-01, 3.04347843e-01, 5.89743614e-01,
          0., 0., 3.22580636e-02, 0., 0., 0., 0., 0., 0., 0.,
          1.76470578e-01, 0., 4.42622930e-01, 0., 0., 0., 0., 0., 0., 0.,
          0., 0., 0., 0., 2.66666651e-01, 1.66666657e-01, 8.09523821e-01,
          0., 0. ]
      - [ 0., 0., 0., 0., 0., 1.99999988e-01, 0., 5.88235319e-01,
          5.00000000e-01, 0., 2.18750015e-01, 1.16279073e-01, 0., 0., 0.,
          0., 0., 8.69565159e-02, 4.34782580e-02, 3.46153855e-01, 0.,
          5.21739125e-01, 0., 5.00000000e-01, 0., 0., 7.14285672e-02, 0.,
          0., 0., 0., 0., 0., 0., 0., 0., 0., 0., 1.76470578e-01, 0., 0.,
          0., 0., 8.33333358e-02, 0., 0., 0., 0., 9.09090936e-02, 0., 0.,
          0., 0., 0., 0., 0., 0., 0., 0., 0., 0., 0., 6.95652127e-01, 0.,
          8.33333284e-02, 0., 0., 5.19999981e-01, 1.15384623e-01, 0., 0.,
          0., 0., 0., 1.15384623e-01, 0., 0., 1.42857149e-01,
          2.10526317e-01, 0., 1.53846160e-01, 0., 0., 1.63934425e-01,
          4.09090906e-01, 2.00000003e-01, 0., 0., 2.75862068e-01, 0., 0.,
          0., 5.88235259e-02, 0., 0., 2.00000003e-01, 0., 1.42857149e-01,
          0., 5.86956501e-01 ]
      - [ 0., 0., 0., 1.33333325e-01, 0., 1.99999988e-01, 5.26315793e-02,
          1.76470578e-01, 2.77777791e-01, 5.38461566e-01, 6.25000000e-02,
          0., 0., 0., 0., 0., 0., 0., 3.47826064e-01, 0., 7.69230798e-02,
          0., 2.70833313e-01, 1.25000000e-01, 0., 0., 0., 0.,
          4.08163257e-02, 0., 0., 0., 0., 0., 0., 5.55555522e-02, 0.,
          1.53846160e-01, 1.17647052e-01, 0., 3.57142836e-02, 0., 0., 0.,
          0., 5.21739125e-01, 0., 0., 3.03030312e-02, 8.10810849e-02,
          6.66666627e-02, 0., 0., 5.00000000e-01, 0., 1.31578952e-01,
          8.33333284e-02, 0., 0., 0., 0., 0., 0., 0., 8.33333284e-02, 0.,
          0., 7.99999982e-02, 7.69230798e-02, 0., 7.17948794e-01, 0., 0.,
          0., 1.15384623e-01, 0., 0., 0., 0., 0., 0., 2.35294104e-01,
          4.34782624e-01, 1.63934417e-02, 0., 0., 0., 0., 0., 0., 0., 0.,
          0., 0., 6.96969748e-01, 3.33333313e-02, 4.16666687e-01,
          4.76190478e-01, 0., 4.34782580e-02 ]
      - [ 0., 1.48148149e-01, 0., 0., 0., 0., 0., 2.35294104e-01,
          1.66666672e-01, 1.53846160e-01, 3.12500030e-01, 0., 0.,
          7.99999982e-02, 0., 9.09090936e-02, 0., 4.34782580e-02,
          5.21739125e-01, 2.30769247e-01, 0., 4.34782580e-02, 0.,
          2.08333343e-01, 1.53846160e-01, 0., 0., 1.17647052e-01, 0., 0.,
          0., 0., 1.99999988e-01, 0., 2.00000003e-01, 0., 0., 0.,
          5.88235259e-02, 0., 0., 1.36363640e-01, 0., 0., 0.,
          8.69565159e-02, 0., 0., 1.81818187e-01, 2.97297299e-01, 0., 0.,
          0., 0., 0., 0., 0., 0., 0., 0., 0., 1.25000000e-01, 0.,
          1.39534891e-01, 0., 8.33333284e-02, 1.15384623e-01, 0., 0.,
          1.30434781e-01, 5.12820520e-02, 9.52380896e-02, 2.22222239e-01,
          1.29032254e-01, 0., 0., 0., 0., 5.26315808e-01, 0.,
          3.07692319e-01, 0., 0., 3.60655725e-01, 4.54545468e-01,
          2.00000003e-01, 1.42857134e-01, 0., 0., 0., 0., 0., 0.,
          5.88235259e-02, 3.03030312e-02, 0., 8.33333284e-02,
          1.90476179e-01, 0., 1.73913032e-01 ]
      - [ 0., 2.22222239e-01, 0., 0., 0., 0., 0., 0., 1.66666672e-01,
          7.69230798e-02, 9.37500000e-02, 1.16279073e-01, 0.,
          1.20000005e-01, 3.63636389e-02, 0., 2.85714269e-02,
          2.17391312e-01, 8.69565159e-02, 0., 0., 0., 1.87500000e-01, 0.,
          3.84615399e-02, 1.49999991e-01, 0., 1.47058830e-01, 0., 0.,
          2.98507474e-02, 1.28205135e-01, 0., 1.99999996e-02, 0.,
          2.77777761e-02, 0., 2.56410271e-01, 5.29411733e-01,
          6.89655170e-02, 0., 0., 0., 0., 6.99999988e-01, 0.,
          2.49999985e-02, 0., 0., 0., 0., 0., 0., 0., 5.55555582e-01,
          5.26315793e-02, 0., 0., 2.22222209e-01, 0., 7.04225376e-02,
          2.08333343e-01, 2.17391312e-01, 2.32558146e-01, 0., 0.,
          7.69230798e-02, 3.99999991e-02, 0., 0., 0., 0., 0., 0., 0.,
          3.23529392e-01, 0., 0., 6.31578982e-01, 0., 0., 0., 0., 0., 0.,
          0., 0., 0., 0., 2.70270258e-02, 0., 0., 0., 0., 0.,
          6.66666627e-02, 0., 0., 3.99999976e-01, 0. ]
      - [ 2.10526317e-01, 3.70370373e-02, 0., 5.33333302e-01, 0.,
          5.99999964e-01, 1.57894745e-01, 4.70588207e-01, 3.33333343e-01,
          0., 0., 0., 0., 0., 0., 9.09090936e-02, 0., 3.47826064e-01, 0.,
          3.84615399e-02, 3.07692319e-01, 5.65217376e-01, 0.,
          4.16666687e-01, 0., 0., 3.21428567e-01, 0., 0., 0., 0., 0.,
          1.99999988e-01, 0., 1.33333325e-01, 0., 6.66666687e-01, 0.,
          5.88235259e-02, 1.03448272e-01, 0., 0., 0., 1.66666672e-01, 0.,
          0., 0., 0., 2.72727281e-01, 0., 2.66666651e-01, 0., 0., 0., 0.,
          0., 2.50000000e-01, 0., 0., 0., 0., 0., 3.04347843e-01, 0., 0.,
          0., 0., 0., 0., 4.34782580e-02, 0., 4.76190448e-02, 0., 0.,
          7.69230798e-02, 0., 0., 1.42857149e-01, 5.26315793e-02, 0.,
          7.69230798e-02, 0., 0., 3.27868834e-02, 3.63636374e-01,
          1.20000005e-01, 2.14285702e-01, 0., 3.79310340e-01,
          1.62162170e-01, 0., 2.63157904e-01, 0., 0., 1.81818187e-01, 0.,
          0., 4.76190448e-02, 0., 3.26086938e-01 ]
      - [ 1.57894745e-01, 0., 3.47826064e-01, 0., 0., 0., 0., 0.,
          1.11111104e-01, 0., 1.25000000e-01, 0., 0., 3.99999991e-02, 0.,
          2.72727281e-01, 2.28571415e-01, 0., 3.47826064e-01,
          7.69230798e-02, 0., 0., 0., 0., 2.69230783e-01, 1.49999991e-01,
          2.50000000e-01, 0., 0., 0., 0., 0., 0., 7.99999982e-02, 0., 0.,
          0., 0., 0., 6.89655170e-02, 2.50000000e-01, 0., 0., 0., 0., 0.,
          0., 5.29411733e-01, 4.54545468e-01, 8.10810849e-02,
          1.33333325e-01, 0., 0., 0., 0., 2.63157897e-02, 0., 0.,
          2.22222209e-01, 0., 0., 0., 0., 1.39534891e-01, 2.08333343e-01,
          0., 0., 3.19999993e-01, 2.30769247e-01, 0., 0., 0., 0., 0., 0.,
          0., 0., 4.76190478e-01, 0., 0., 3.84615421e-01, 2.94117659e-01,
          1.30434781e-01, 0., 0., 2.00000003e-01, 0., 0., 3.10344815e-01,
          1.08108103e-01, 2.30769247e-01, 1.57894745e-01, 1.76470578e-01,
          5.88235259e-02, 0., 0., 8.33333284e-02, 1.42857149e-01, 0.,
          1.08695656e-01 ]
      - [ 4.73684222e-01, 1.85185194e-01, 1.30434781e-01, 0., 0., 0., 0.,
          1.17647052e-01, 0., 0., 2.18750015e-01, 4.65116277e-02,
          2.58620679e-01, 0., 0., 2.72727281e-01, 0., 0., 1.73913032e-01,
          7.69230798e-02, 0., 2.60869563e-01, 0., 1.25000000e-01, 0., 0.,
          7.14285672e-02, 2.94117659e-01, 0., 0., 4.47761230e-02, 0., 0.,
          3.99999991e-02, 0., 2.77777761e-02, 0., 0., 5.88235259e-02, 0.,
          0., 4.54545468e-02, 0., 3.61111104e-01, 0., 0., 0.,
          1.17647052e-01, 0., 3.78378391e-01, 0., 0., 0., 0.,
          7.40740746e-02, 0., 0., 4.44444478e-01, 0., 2.00000003e-01, 0.,
          0., 2.60869563e-01, 0., 8.33333284e-02, 8.33333284e-02, 0.,
          1.20000005e-01, 0., 0., 7.69230798e-02, 0., 0., 0.,
          1.53846160e-01, 0., 0., 1.42857149e-01, 0., 0., 0.,
          1.76470578e-01, 4.34782580e-02, 0., 1.81818187e-01,
          7.99999982e-02, 7.14285672e-02, 0., 0., 0., 0., 1.57894745e-01,
          2.35294104e-01, 0., 0., 2.00000003e-01, 0., 2.85714298e-01, 0.,
          0. ]
      - [ 0., 7.40740746e-02, 2.17391312e-01, 0., 0., 0., 0., 0.,
          5.55555522e-02, 0., 0., 0., 0., 0., 3.45454544e-01,
          1.81818187e-01, 8.57142881e-02, 0., 0., 3.84615399e-02, 0., 0.,
          0., 1.25000000e-01, 0., 0., 0., 0., 2.65306115e-01,
          2.50000000e-01, 0., 2.56410260e-02, 3.99999976e-01, 0., 0.,
          2.77777761e-02, 1.11111104e-01, 0., 1.76470578e-01,
          2.75862068e-01, 0., 2.27272734e-02, 0., 0., 0., 0., 0., 0., 0.,
          0., 0., 0., 0., 0., 3.70370373e-02, 0., 0., 6.66666701e-02,
          1.11111104e-01, 5.14285684e-01, 2.95774639e-01, 0., 0.,
          6.97674453e-02, 0., 3.33333313e-01, 0., 0., 0., 0., 0., 0., 0.,
          0., 1.15384623e-01, 2.05882356e-01, 0., 1.42857149e-01, 1., 0.,
          2.30769247e-01, 0., 0., 0., 0., 0., 7.14285672e-02, 0., 0.,
          8.10810849e-02, 0., 0., 0., 0., 0., 0., 0., 0., 6.49999976e-01,
          0. ]
      - [ 0., 0., 0., 1.33333325e-01, 0., 1.99999988e-01, 2.10526317e-01,
          0., 3.88888896e-01, 0., 9.37500000e-02, 0., 0., 0., 0., 0., 0.,
          1.73913032e-01, 3.47826064e-01, 0., 1.53846160e-01, 0.,
          2.50000000e-01, 8.33333284e-02, 0., 0., 7.14285672e-02, 0., 0.,
          0., 0., 0., 0., 0., 0., 5.55555522e-02, 0., 0., 1.76470578e-01,
          0., 3.57142836e-02, 0., 0., 0., 6.66666627e-02, 0., 0., 0.,
          1.21212125e-01, 8.10810849e-02, 0., 1.11111104e-01,
          1.99999988e-01, 0., 0., 2.63157904e-01, 8.33333284e-02, 0., 0.,
          0., 2.81690136e-02, 0., 4.34782580e-02, 0., 5.00000000e-01, 0.,
          0., 2.80000001e-01, 3.84615421e-01, 1.30434781e-01,
          2.82051295e-01, 0., 0., 0., 3.84615399e-02, 0., 0., 0., 0., 0.,
          0., 0., 3.47826064e-01, 3.27868834e-02, 0., 0., 0., 0.,
          3.44827585e-02, 0., 0., 5.26315793e-02, 8.82352889e-02, 0.,
          5.75757563e-01, 3.33333343e-01, 0., 7.14285731e-01, 0.,
          2.17391312e-01 ]
      - [ 0., 1.48148149e-01, 0., 6.66666687e-01, 0., 0., 0., 0., 0., 0.,
          0., 0., 3.44827585e-02, 7.99999982e-02, 2.54545480e-01,
          1.81818187e-01, 1.71428576e-01, 0., 0., 0., 0., 0., 0., 0.,
          1.92307711e-01, 0., 0., 0., 2.04081628e-02, 6.66666687e-01, 0.,
          4.87179488e-01, 0., 0., 6.66666627e-02, 3.61111104e-01, 0.,
          2.30769247e-01, 1.76470578e-01, 0., 7.14285672e-02, 0.,
          1.11111104e-01, 0., 0., 4.34782580e-02, 0., 0., 0.,
          4.05405402e-01, 0., 0., 0., 3.33333313e-02, 1.11111119e-01,
          7.89473727e-02, 0., 2.22222228e-02, 5.55555522e-02,
          5.71428537e-02, 1.40845075e-01, 0., 0., 2.32558139e-02, 0.,
          1.66666657e-01, 0., 0., 0., 0., 7.69230798e-02, 0.,
          4.44444455e-02, 2.25806460e-01, 0., 5.88235259e-02, 0.,
          4.76190448e-02, 3.15789491e-01, 0., 1.53846160e-01,
          5.88235259e-02, 0., 0., 0., 0., 0., 0., 0., 0., 0., 0., 0., 0.,
          3.03030312e-02, 0., 0., 0., 2.50000000e-01, 0. ]
      - [ 4.21052635e-01, 6.66666687e-01, 0., 0., 0., 0., 0., 0., 0., 0.,
          0., 0., 7.06896544e-01, 0., 0., 9.09090936e-02, 0.,
          3.91304344e-01, 8.69565159e-02, 1.53846160e-01, 0.,
          2.17391312e-01, 0., 3.75000000e-01, 0., 0., 3.57142836e-02,
          4.11764711e-01, 0., 0., 0., 0., 0., 0., 0., 0., 0., 0.,
          3.52941155e-01, 0., 0., 0., 5.55555522e-02, 1.11111104e-01, 0.,
          0., 4.99999970e-02, 0., 0., 1.35135144e-01, 0., 0., 0., 0.,
          2.96296299e-01, 5.26315793e-02, 0., 3.11111122e-01, 0.,
          2.85714269e-02, 0., 0., 5.65217376e-01, 0., 0., 2.50000000e-01,
          0., 3.99999991e-02, 0., 0., 0., 0., 0., 3.22580636e-02,
          1.53846160e-01, 2.94117630e-02, 0., 0., 4.21052635e-01, 0.,
          7.69230798e-02, 0., 0., 3.27868834e-02, 0., 0., 0., 0., 0., 0.,
          0., 5.26315793e-02, 0., 0., 0., 6.66666627e-02, 0., 0.,
          9.99999940e-02, 0. ]
      - [ 4.73684222e-01, 1.11111119e-01, 2.60869563e-01, 0.,
          2.35294104e-01, 0., 0., 0., 0., 0., 3.12500030e-01, 0.,
          2.93103456e-01, 0., 1.45454556e-01, 0., 7.71428525e-01, 0., 0.,
          0., 0., 0., 0., 0., 0., 0., 3.57142836e-02, 2.94117659e-01,
          2.04081628e-02, 4.16666657e-01, 8.95522460e-02, 0., 0.,
          1.99999996e-02, 0., 0., 0., 0., 5.88235259e-02, 5.17241359e-01,
          3.57142836e-02, 2.27272734e-02, 0., 0., 0., 0., 5.24999976e-01,
          0., 0., 0., 0., 0., 0., 0., 0., 2.63157897e-02, 0., 0.,
          1.38888896e-01, 0., 8.45070407e-02, 0., 0., 1.39534891e-01, 0.,
          0., 0., 0., 0., 0., 0., 0., 6.66666701e-02, 0., 3.84615399e-02,
          0., 0., 4.76190448e-02, 0., 0., 0., 0., 0., 0., 0., 0., 0.,
          1.99999988e-01, 0., 1.89189196e-01, 0., 1.05263159e-01, 0., 0.,
          1.21212125e-01, 0., 0., 4.76190448e-02, 0., 0. ]
      - [ 5.78947365e-01, 4.07407433e-01, 0., 0., 0., 0., 1.05263159e-01,
          0., 0., 7.69230798e-02, 0., 0., 5.68965495e-01, 0., 0.,
          1.81818187e-01, 0., 1.73913032e-01, 2.17391312e-01,
          3.84615399e-02, 0., 0., 4.16666642e-02, 3.33333313e-01, 0., 0.,
          1.07142851e-01, 2.64705867e-01, 0., 0., 0., 0., 0., 0., 0., 0.,
          0., 0., 2.94117659e-01, 0., 0., 0., 0., 0., 0., 0.,
          2.49999985e-02, 1.17647052e-01, 9.09090936e-02, 4.32432413e-01,
          0., 0., 0., 0., 2.96296299e-01, 2.63157897e-02, 0.,
          3.33333343e-01, 0., 0., 0., 0., 4.34782624e-01, 2.32558139e-02,
          0., 0., 0., 3.99999991e-02, 0., 0., 7.69230798e-02, 0., 0.,
          9.67741981e-02, 0., 0., 0., 0., 1.05263159e-01, 0., 0.,
          2.94117659e-01, 0., 1.14754103e-01, 2.72727281e-01,
          7.99999982e-02, 0., 0., 0., 0., 0., 3.15789491e-01, 0., 0., 0.,
          2.33333334e-01, 0., 0., 0., 0. ]
      - [ 0., 0., 2.60869563e-01, 0., 0., 0., 0., 0., 3.88888896e-01,
          1.53846160e-01, 0., 0., 0., 3.99999991e-02, 0., 0., 0.,
          2.17391312e-01, 3.47826064e-01, 0., 0., 0., 1.25000000e-01, 0.,
          0., 9.99999940e-02, 0., 2.94117630e-02, 0., 0., 0., 0., 0., 0.,
          2.33333334e-01, 2.77777761e-02, 0., 0., 4.11764711e-01, 0.,
          1.42857134e-01, 0., 5.55555522e-02, 0., 5.00000000e-01, 0., 0.,
          0., 2.42424250e-01, 0., 0., 0., 0., 0., 1.85185194e-01,
          1.05263159e-01, 0., 0., 0., 0., 0., 0., 3.47826064e-01,
          6.97674453e-02, 2.08333343e-01, 0., 0., 2.80000001e-01,
          2.69230783e-01, 1.73913032e-01, 2.30769247e-01, 0., 0.,
          1.29032254e-01, 0., 0., 0., 0., 1.57894745e-01, 0., 0., 0., 0.,
          2.62295067e-01, 4.54545468e-02, 0., 0., 0., 2.06896544e-01, 0.,
          0., 4.21052635e-01, 0., 0., 3.03030312e-02, 2.33333334e-01, 0.,
          4.28571433e-01, 0., 1.73913032e-01 ]
      - [ 0., 0., 0., 0., 0., 0., 0., 0., 4.44444418e-01, 0., 0.,
          1.86046511e-01, 2.58620679e-01, 0., 1.09090917e-01, 0., 0., 0.,
          4.34782580e-02, 0., 0., 0., 0., 0., 0., 0., 0., 0., 0., 0.,
          1.19402990e-01, 0., 0., 0., 0., 0., 0., 0., 0., 0.,
          6.07142866e-01, 2.95454532e-01, 5.55555522e-02, 1.94444448e-01,
          0., 0., 7.49999955e-02, 5.88235259e-02, 0., 1.62162170e-01, 0.,
          5.55555522e-02, 0., 0., 0., 0., 0., 0., 8.33333358e-02,
          2.00000003e-01, 0., 0., 4.34782580e-02, 1.16279073e-01,
          2.50000000e-01, 2.50000000e-01, 1.53846160e-01, 1.59999996e-01,
          2.69230783e-01, 0., 3.33333343e-01, 0., 0., 0., 0., 0.,
          1.66666657e-01, 0., 3.68421078e-01, 9.09090936e-02,
          3.84615421e-01, 5.88235259e-02, 0., 1.47540987e-01, 0., 0.,
          7.14285672e-02, 0., 0., 0., 2.30769247e-01, 0., 2.94117630e-02,
          1.17647052e-01, 9.09090936e-02, 0., 0., 0., 1.74999997e-01,
          1.30434781e-01 ]
      - [ 0., 0., 0., 0., 1.17647052e-01, 0., 5.26315793e-02, 0.,
          5.00000000e-01, 3.84615421e-01, 0., 9.30232555e-02, 0., 0.,
          2.18181834e-01, 3.63636374e-01, 2.85714269e-02, 0., 0., 0., 0.,
          0., 8.33333284e-02, 0., 3.84615399e-02, 0., 0., 0.,
          2.04081628e-02, 0., 0., 0., 0., 0., 0., 0., 0., 0., 0., 0., 0.,
          1.59090921e-01, 0., 0., 3.66666645e-01, 0., 0., 0.,
          6.06060624e-02, 0., 0., 0., 0., 0., 0., 0., 0., 4.44444455e-02,
          2.77777761e-02, 2.85714269e-02, 2.81690136e-02, 3.33333313e-01,
          0., 0., 0., 5.83333373e-01, 3.84615421e-01, 0., 0.,
          4.34782580e-02, 2.56410260e-02, 3.33333343e-01, 2.22222228e-02,
          0., 0., 3.52941155e-01, 8.33333284e-02, 0., 1.05263159e-01,
          5.45454562e-01, 7.69230843e-01, 0., 0., 0., 0., 0., 0.,
          3.99999976e-01, 0., 0., 3.84615421e-01, 0., 0., 1.76470578e-01,
          3.63636374e-01, 0., 0., 0., 5.24999976e-01, 3.26086938e-01 ]
      - [ 0., 0., 2.17391312e-01, 0., 5.88235259e-02, 0., 0.,
          5.88235259e-02, 5.55555522e-02, 0., 6.25000000e-02, 0.,
          3.44827585e-02, 3.99999991e-02, 0., 0., 0., 0., 4.34782580e-02,
          3.46153855e-01, 7.69230798e-02, 0., 0., 4.16666642e-02,
          7.69230798e-02, 3.99999976e-01, 1.42857134e-01, 0., 0., 0.,
          8.95522460e-02, 1.28205135e-01, 9.99999940e-02, 7.99999982e-02,
          3.33333313e-02, 0., 0., 4.61538494e-01, 0., 1.72413796e-01, 0.,
          0., 5.00000000e-01, 0., 0., 5.21739125e-01, 0., 1.76470578e-01,
          3.03030312e-02, 0., 0., 0., 3.49999994e-01, 2.66666651e-01, 0.,
          0., 0., 2.22222228e-02, 2.50000000e-01, 0., 0., 2.91666687e-01,
          1.30434781e-01, 1.86046511e-01, 0., 0., 0., 3.99999991e-02,
          7.69230798e-02, 0., 0., 0., 0., 3.22580636e-02, 0., 0.,
          1.66666657e-01, 0., 0., 0., 7.69230798e-02, 5.29411733e-01, 0.,
          0., 9.09090936e-02, 2.40000010e-01, 0., 9.99999940e-02,
          3.44827585e-02, 1.89189196e-01, 0., 0., 1.76470578e-01, 0., 0.,
          3.33333313e-02, 3.75000000e-01, 0., 0., 0. ]
      - [ 4.21052635e-01, 1.11111119e-01, 4.78260845e-01, 1.33333325e-01,
          0., 9.99999940e-02, 1.57894745e-01, 0., 0., 1.53846160e-01, 0.,
          2.32558139e-02, 6.89655170e-02, 1.59999996e-01, 1.81818195e-02,
          1.81818187e-01, 0., 0., 3.91304344e-01, 1.15384623e-01, 0., 0.,
          0., 8.33333284e-02, 2.30769247e-01, 0., 3.57142836e-02, 0., 0.,
          2.22222209e-01, 0., 1.02564104e-01, 1.99999988e-01,
          1.99999996e-02, 1.33333325e-01, 2.77777791e-01, 2.22222209e-01,
          0., 1.17647052e-01, 0., 7.14285672e-02, 0., 5.55555522e-02, 0.,
          3.33333313e-02, 0., 7.49999955e-02, 7.05882311e-01, 0.,
          5.40540516e-02, 0., 0., 2.50000000e-01, 0., 0., 0.,
          2.50000000e-01, 6.66666701e-02, 2.77777761e-02, 0., 0.,
          1.25000000e-01, 4.34782580e-02, 1.39534891e-01, 0.,
          4.16666687e-01, 2.69230783e-01, 0., 1.53846160e-01, 0., 0., 0.,
          0., 1.61290333e-01, 0., 0., 2.50000000e-01, 1.90476179e-01, 0.,
          0., 0., 3.52941155e-01, 0., 3.27868834e-02, 2.72727281e-01,
          2.40000010e-01, 2.14285702e-01, 1.99999988e-01, 0., 0.,
          1.53846160e-01, 0., 0., 5.88235259e-02, 3.03030312e-02, 0., 0.,
          0., 0., 0. ]
      - [ 2.10526317e-01, 0., 4.78260845e-01, 6.66666627e-02, 0., 0., 0.,
          1.17647052e-01, 0., 3.84615421e-01, 2.50000000e-01,
          2.09302321e-01, 0., 3.60000014e-01, 0., 0., 0., 8.69565159e-02,
          0., 0., 0., 8.69565159e-02, 2.08333343e-01, 8.33333284e-02, 0.,
          0., 2.14285702e-01, 2.94117630e-02, 0., 0., 4.47761230e-02, 0.,
          0., 1.20000005e-01, 0., 8.33333358e-02, 0., 0., 5.88235259e-02,
          0., 4.64285672e-01, 0., 0., 0., 3.33333343e-01, 0., 0.,
          4.70588207e-01, 9.09090936e-02, 0., 0., 0., 0., 0., 0., 0., 0.,
          1.11111119e-01, 2.77777761e-02, 0., 2.81690136e-02,
          2.91666687e-01, 4.78260845e-01, 1.39534891e-01, 0., 0.,
          1.15384623e-01, 0., 0., 0., 0., 0., 0., 0., 0., 5.88235259e-02,
          0., 4.76190478e-01, 0., 0., 0., 0., 0., 0., 9.09090936e-02,
          3.19999993e-01, 0., 0., 1.37931034e-01, 0., 0., 0.,
          2.94117659e-01, 0., 0., 0., 0., 0., 4.99999970e-02,
          8.69565159e-02 ]
      - [ 0., 0., 0., 0., 0., 0., 5.26315793e-02, 0., 0., 0., 0.,
          4.65116277e-02, 0., 7.99999982e-02, 5.27272761e-01,
          1.81818187e-01, 0., 8.69565159e-02, 0., 7.69230798e-02, 0., 0.,
          0., 2.08333343e-01, 0., 0., 0., 0., 4.08163279e-01, 0., 0.,
          2.56410260e-02, 0., 0., 1.00000001e-01, 0., 0., 0.,
          5.88235259e-02, 0., 0., 3.18181843e-01, 0., 0., 0., 0., 0., 0.,
          0., 0., 0., 0., 0., 0., 7.40740746e-02, 0., 0., 0., 0., 0.,
          5.49295723e-01, 4.16666642e-02, 0., 0., 0., 5.00000000e-01, 0.,
          0., 0., 8.69565159e-02, 0., 0., 5.77777803e-01, 0., 0., 0., 0.,
          0., 0., 0., 5.38461566e-01, 0., 0., 0., 2.27272734e-01, 0., 0.,
          0., 0., 0., 0., 0., 0., 0., 3.33333343e-01, 0., 0., 0.,
          3.24999988e-01, 0. ]
      - [ 0., 2.96296299e-01, 2.60869563e-01, 0., 0., 0., 0., 0.,
          1.66666672e-01, 0., 6.25000000e-02, 0., 1.03448272e-01, 0.,
          1.27272740e-01, 1.81818187e-01, 0., 0., 0., 4.61538494e-01, 0.,
          0., 0., 0., 2.69230783e-01, 0., 0., 4.41176444e-01, 0., 0., 0.,
          2.05128208e-01, 0., 2.00000003e-01, 0., 5.55555522e-02,
          1.11111104e-01, 0., 0., 0., 3.57142836e-02, 1.36363640e-01, 0.,
          0., 0., 0., 2.49999985e-02, 2.94117659e-01, 0., 1.08108103e-01,
          0., 0., 0., 0., 1.11111119e-01, 0., 8.33333284e-02, 0.,
          5.55555522e-02, 2.85714269e-02, 0., 8.33333284e-02,
          4.34782580e-02, 6.97674453e-02, 0., 4.16666687e-01, 0.,
          3.19999993e-01, 1.53846160e-01, 0., 5.12820520e-02, 0.,
          1.11111119e-01, 3.22580636e-02, 0., 0., 0., 3.33333343e-01,
          2.10526317e-01, 0., 1.53846160e-01, 2.35294104e-01,
          1.73913032e-01, 0., 0., 2.00000003e-01, 0., 0., 0., 0.,
          2.30769247e-01, 0., 1.47058830e-01, 1.17647052e-01, 0., 0.,
          8.33333284e-02, 0., 3.49999994e-01, 0. ]
      - [ 0., 0., 8.69565159e-02, 0., 0., 0., 0., 0., 0., 0.,
          3.12500030e-01, 0., 1.20689660e-01, 7.99999982e-02,
          1.45454556e-01, 0., 2.85714269e-02, 0., 5.21739125e-01, 0., 0.,
          0., 2.08333321e-02, 0., 2.30769247e-01, 0., 0., 0., 0., 0.,
          1.34328365e-01, 4.10256416e-01, 0., 1.20000005e-01, 0.,
          3.05555552e-01, 0., 7.43589759e-01, 0., 0., 0., 0.,
          2.77777791e-01, 0., 6.66666627e-02, 8.69565159e-02, 0., 0., 0.,
          2.70270288e-01, 0., 0., 0., 6.66666627e-02, 0., 0., 0., 0.,
          2.77777761e-02, 0., 0., 2.91666687e-01, 0., 2.32558139e-02, 0.,
          0., 1.15384623e-01, 0., 1.92307711e-01, 0., 1.79487199e-01, 0.,
          0., 0., 3.84615399e-02, 0., 0., 0., 0., 0., 0., 2.35294104e-01,
          0., 1.31147534e-01, 0., 0., 0., 0., 0., 2.70270258e-02, 0., 0.,
          2.64705867e-01, 0., 3.03030312e-02, 6.66666627e-02, 0.,
          1.90476179e-01, 2.49999985e-02, 0. ]
      - [ 0., 0., 0., 0., 0., 0., 1.05263159e-01, 0., 4.44444418e-01, 0.,
          9.37500000e-02, 0., 0., 0., 7.27272779e-02, 0., 0., 0.,
          4.34782580e-02, 0., 0., 0., 2.50000000e-01, 0., 0., 0., 0.,
          2.05882356e-01, 4.48979586e-01, 0., 0., 4.35897470e-01, 0., 0.,
          0., 0., 0., 2.56410271e-01, 1.17647052e-01, 0., 0.,
          1.59090921e-01, 0., 0., 4.33333308e-01, 0., 0., 0., 0.,
          5.40540516e-02, 0., 0., 0., 3.33333313e-02, 0., 2.63157897e-02,
          0., 0., 8.33333358e-02, 0., 5.63380271e-02, 2.50000000e-01, 0.,
          1.16279073e-01, 0., 2.50000000e-01, 2.69230783e-01, 0., 0., 0.,
          1.79487199e-01, 0., 3.77777815e-01, 0., 0., 2.05882356e-01, 0.,
          0., 1.05263159e-01, 0., 1.53846160e-01, 5.88235259e-02, 0., 0.,
          0., 0., 0., 0., 0., 0., 0., 0., 0., 0., 0., 1.00000001e-01,
          1.66666657e-01, 0., 3.24999988e-01, 0. ]
      - [ 2.10526317e-01, 0., 4.78260845e-01, 3.33333343e-01,
          2.94117659e-01, 9.99999940e-02, 0., 0., 3.88888896e-01, 0., 0.,
          2.09302321e-01, 3.44827585e-02, 0., 0., 1.81818187e-01, 0.,
          4.34782580e-02, 0., 0., 1.53846160e-01, 3.04347843e-01, 0.,
          1.66666657e-01, 0., 0., 3.57142836e-02, 0., 0., 0.,
          1.34328365e-01, 1.53846160e-01, 3.99999976e-01, 7.99999982e-02,
          0., 0., 3.33333343e-01, 0., 0., 0., 1.42857134e-01, 0., 0., 0.,
          0., 0., 2.49999985e-02, 0., 3.03030312e-02, 0., 4.00000006e-01,
          0., 0., 0., 0., 0., 3.33333313e-01, 2.22222239e-01,
          1.38888896e-01, 0., 2.81690136e-02, 2.91666687e-01,
          4.78260845e-01, 9.30232555e-02, 0., 3.33333313e-01, 0.,
          1.20000005e-01, 0., 0., 0., 0., 0., 0., 1.92307711e-01,
          5.29411733e-01, 0., 3.33333343e-01, 0., 0., 3.07692319e-01, 0.,
          0., 0., 0., 1.20000005e-01, 3.57142866e-01, 0., 1.03448272e-01,
          0., 0., 0., 0., 5.88235259e-02, 0., 0., 0., 4.76190448e-02, 0.,
          0. ]
      - [ 1.57894745e-01, 2.96296299e-01, 5.21739125e-01, 0., 0., 0.,
          2.63157904e-01, 3.52941155e-01, 0., 0., 0., 2.55813956e-01,
          3.44827585e-02, 0., 0., 2.72727281e-01, 1.42857149e-01, 0., 0.,
          0., 0., 2.60869563e-01, 2.08333321e-02, 0., 0., 0.,
          2.85714269e-01, 2.94117630e-02, 0., 1.11111104e-01,
          1.34328365e-01, 0., 0., 0., 0., 2.77777761e-02, 0.,
          1.02564104e-01, 2.35294104e-01, 0., 4.64285672e-01, 0.,
          1.66666672e-01, 5.55555522e-02, 0., 2.17391312e-01, 0.,
          1.17647052e-01, 0., 0., 0., 0., 1.99999988e-01, 3.33333313e-02,
          0., 0., 2.50000000e-01, 0., 2.77777761e-02, 0., 0., 0.,
          2.60869563e-01, 0., 2.91666687e-01, 4.16666687e-01, 0.,
          1.59999996e-01, 0., 0., 0., 0., 0., 0., 0., 0., 0.,
          2.85714298e-01, 1.57894745e-01, 0., 0., 0., 4.34782624e-01, 0.,
          9.09090936e-02, 1.59999996e-01, 0., 3.99999976e-01,
          2.41379321e-01, 0., 0., 2.10526317e-01, 8.82352889e-02, 0., 0.,
          3.33333313e-02, 8.33333284e-02, 0., 2.49999985e-02, 0. ]
      - [ 1.05263159e-01, 0., 0., 0., 0., 0., 3.15789491e-01, 0., 0.,
          3.07692319e-01, 0., 0., 0., 7.99999982e-02, 0., 0., 0., 0., 0.,
          0., 0., 1.30434781e-01, 8.33333284e-02, 0., 0., 2.50000000e-01,
          2.50000000e-01, 0., 0., 0., 0., 0., 0., 0., 1.33333325e-01, 0.,
          0., 0., 1.17647052e-01, 0., 1.78571433e-01, 0., 0., 0.,
          3.66666645e-01, 0., 0., 0., 4.24242467e-01, 0., 0., 0., 0., 0.,
          0., 0., 0., 0., 0., 0., 0., 8.33333284e-02, 3.47826064e-01,
          4.65116277e-02, 4.16666642e-02, 0., 3.84615399e-02,
          2.00000003e-01, 2.30769247e-01, 6.08695686e-01, 0., 0., 0.,
          2.25806460e-01, 0., 1.17647052e-01, 8.33333284e-02, 0., 0., 0.,
          0., 0., 0., 3.27868834e-02, 0., 0., 0., 9.99999940e-02,
          6.55172408e-01, 0., 0., 4.73684222e-01, 1.47058830e-01, 0., 0.,
          0., 0., 1.90476179e-01, 0., 7.82608688e-01 ]
      - [ 0., 0., 0., 0., 0., 0., 0., 4.11764711e-01, 5.55555522e-02, 0.,
          0., 1.39534891e-01, 0., 0., 7.27272779e-02, 2.72727281e-01,
          8.57142881e-02, 0., 4.34782580e-02, 0., 0., 1.73913032e-01, 0.,
          8.33333284e-02, 1.92307711e-01, 4.99999970e-02, 0., 0., 0., 0.,
          0., 0., 3.99999976e-01, 0., 0., 0., 1.11111104e-01, 0., 0.,
          6.89655170e-02, 0., 2.04545453e-01, 0., 3.05555552e-01, 0., 0.,
          4.99999970e-02, 0., 5.75757563e-01, 2.70270258e-02, 0.,
          5.55555522e-02, 0., 0., 0., 0., 0., 4.22222227e-01,
          8.33333358e-02, 2.00000003e-01, 0., 0., 0., 1.86046511e-01, 0.,
          5.00000000e-01, 1.92307711e-01, 0., 0., 0., 0., 0., 0., 0.,
          2.69230783e-01, 2.35294104e-01, 0., 0., 2.10526317e-01, 0.,
          2.30769247e-01, 0., 0., 4.91803288e-02, 0., 0., 1.42857134e-01,
          1.99999988e-01, 0., 8.10810849e-02, 3.84615421e-01, 0., 0.,
          1.17647052e-01, 0., 0., 0., 0., 0., 4.78260845e-01 ]
      - [ 1.05263159e-01, 3.70370373e-02, 3.04347843e-01, 3.33333343e-01,
          1.17647052e-01, 5.99999964e-01, 5.26315793e-02, 0., 0., 0.,
          2.50000000e-01, 0., 0., 0., 3.63636389e-02, 0., 0.,
          1.73913032e-01, 8.69565159e-02, 0., 0., 5.21739125e-01, 0.,
          2.08333343e-01, 0., 0., 7.14285672e-02, 0., 0., 0., 0., 0., 0.,
          6.00000024e-02, 0., 8.33333358e-02, 0., 0., 1.17647052e-01, 0.,
          6.42857134e-01, 0., 0., 0., 3.33333313e-02, 0., 1.74999997e-01,
          0., 9.09090936e-02, 0., 3.33333343e-01, 0., 0., 0., 0., 0.,
          8.33333284e-02, 1.33333340e-01, 0., 0., 0., 1.66666657e-01,
          6.08695686e-01, 4.65116277e-02, 0., 0., 0., 2.40000010e-01, 0.,
          0., 0., 0., 0., 0., 0., 1.17647052e-01, 0., 2.38095239e-01,
          1.57894745e-01, 1.81818187e-01, 3.07692319e-01, 1.17647052e-01,
          0., 1.63934417e-02, 0., 0., 0., 0., 1.72413796e-01, 0.,
          3.84615421e-01, 3.15789491e-01, 2.05882356e-01, 2.35294104e-01,
          0., 0., 0., 2.38095239e-01, 0., 1.95652172e-01 ]
      - [ 0., 0., 2.60869563e-01, 0., 0., 0., 0., 0., 0., 0.,
          1.56250015e-01, 0., 1.20689660e-01, 0., 7.27272779e-02, 0.,
          8.57142881e-02, 0., 1.30434781e-01, 0., 0., 0., 0., 0.,
          2.30769247e-01, 0., 0., 0., 0., 0., 2.98507474e-02,
          4.10256416e-01, 0., 1.40000001e-01, 0., 2.50000000e-01, 0.,
          9.23076987e-01, 0., 0., 0., 0., 2.22222209e-01, 0.,
          6.66666627e-02, 2.17391312e-01, 0., 2.35294104e-01, 0.,
          4.32432413e-01, 0., 0., 0., 2.66666651e-01, 0., 0., 0., 0.,
          5.55555522e-02, 0., 1.40845068e-02, 2.08333343e-01, 0., 0., 0.,
          0., 0., 0., 0., 0., 1.02564104e-01, 0., 0., 0., 0., 0., 0., 0.,
          0., 0., 0., 5.29411733e-01, 0., 3.27868834e-02, 0., 0., 0., 0.,
          0., 1.62162170e-01, 0., 0., 4.11764711e-01, 0., 0.,
          1.66666672e-01, 8.33333284e-02, 1.42857149e-01, 0., 0. ]
      - [ 0., 0., 0., 2.00000003e-01, 0., 3.99999976e-01, 3.15789491e-01,
          5.88235259e-02, 4.44444418e-01, 0., 1.87500000e-01, 0., 0., 0.,
          0., 0., 0., 2.60869563e-01, 3.04347843e-01, 0., 2.30769247e-01,
          1.73913032e-01, 8.33333284e-02, 1.25000000e-01, 0., 0., 0., 0.,
          0., 0., 0., 0., 0., 0., 2.00000003e-01, 0., 4.44444418e-01, 0.,
          5.88235259e-02, 1.72413796e-01, 0., 0., 0., 2.77777761e-02, 0.,
          0., 0., 0., 4.24242467e-01, 0., 2.00000003e-01, 5.55555522e-02,
          2.99999982e-01, 0., 2.22222239e-01, 0., 2.50000000e-01, 0., 0.,
          0., 0., 0., 0., 4.65116277e-02, 3.75000000e-01, 0., 0.,
          2.40000010e-01, 7.69230798e-02, 3.47826064e-01, 0.,
          9.52380896e-02, 0., 3.22580636e-02, 0., 0., 0., 0., 0., 0., 0.,
          0., 0., 8.19672123e-02, 2.72727281e-01, 0., 0., 0.,
          5.86206913e-01, 0., 0., 0., 2.05882356e-01, 1.17647052e-01, 0.,
          2.00000003e-01, 0., 3.80952358e-01, 0., 2.17391312e-01 ]
      - [ 1.05263159e-01, 7.40740746e-02, 0., 0., 0., 0., 0., 0.,
          3.33333343e-01, 0., 0., 6.97674453e-02, 0., 0., 0.,
          5.45454562e-01, 5.71428537e-02, 1.30434781e-01, 4.34782580e-02,
          0., 0., 0., 0., 0., 0., 0., 3.57142836e-02, 0., 1.63265303e-01,
          0., 0., 1.02564104e-01, 0., 0., 0., 0., 3.33333343e-01, 0.,
          1.76470578e-01, 0., 0., 0., 0., 2.77777761e-02, 1.33333325e-01,
          0., 0., 0., 2.72727281e-01, 1.08108103e-01, 0., 5.55555522e-02,
          0., 0., 4.07407433e-01, 1.57894745e-01, 1.66666657e-01,
          4.44444455e-02, 1.38888896e-01, 2.00000003e-01, 1.40845068e-02,
          4.16666642e-02, 4.34782580e-02, 6.97674453e-02, 0.,
          2.50000000e-01, 2.30769247e-01, 0., 0., 0., 1.28205135e-01,
          4.76190448e-02, 0., 0., 3.84615399e-02, 6.47058785e-01, 0., 0.,
          5.26315808e-01, 9.09090936e-02, 4.61538494e-01, 0., 0.,
          1.96721315e-01, 0., 0., 0., 2.99999982e-01, 0., 3.24324340e-01,
          3.07692319e-01, 1.05263159e-01, 0., 2.35294104e-01, 0., 0., 0.,
          0., 4.99999970e-02, 0. ]
      - [ 0., 0., 0., 0., 0., 0., 1.05263159e-01, 0., 0., 7.69230798e-02,
          3.12500030e-01, 0., 1.72413792e-02, 0., 0., 0., 0., 0., 0., 0.,
          0., 0., 2.50000000e-01, 0., 0., 0., 0., 0., 0., 0.,
          1.79104492e-01, 0., 9.99999940e-02, 1.80000007e-01, 0., 0., 0.,
          1.79487199e-01, 1.76470578e-01, 0., 0., 0., 2.77777791e-01, 0.,
          6.66666627e-02, 4.34782624e-01, 0., 0., 0., 5.40540576e-01, 0.,
          0., 0., 6.66666687e-01, 0., 0., 0., 0., 0., 0., 0.,
          8.75000000e-01, 0., 0., 0., 0., 0., 3.99999991e-02, 0., 0.,
          2.56410271e-01, 0., 2.22222228e-02, 0., 0., 0., 0., 0.,
          5.78947365e-01, 0., 0., 1.17647052e-01, 0., 9.83606577e-02, 0.,
          0., 7.14285672e-02, 0., 0., 0., 0., 0., 3.82352918e-01, 0., 0.,
          3.33333313e-02, 5.00000000e-01, 0., 4.99999970e-02, 0. ]
      - [ 0., 0., 0., 0., 1.76470578e-01, 0., 5.26315793e-02, 0.,
          1.11111104e-01, 3.07692319e-01, 6.25000000e-02, 0., 0.,
          1.20000005e-01, 0., 0., 0., 4.34782580e-02, 1.30434781e-01, 0.,
          0., 0., 4.16666687e-01, 0., 3.84615399e-02, 1.99999988e-01, 0.,
          1.17647052e-01, 0., 0., 0., 0., 0., 0., 6.66666627e-02, 0., 0.,
          5.12820520e-02, 5.88235259e-02, 0., 0., 0., 0., 0.,
          1.33333325e-01, 0., 0., 1.17647052e-01, 9.09090936e-02,
          1.89189196e-01, 6.66666627e-02, 1.11111104e-01, 0., 0.,
          1.11111119e-01, 3.68421078e-01, 0., 4.44444455e-02, 0., 0., 0.,
          1.66666657e-01, 1.73913032e-01, 2.32558139e-02, 2.50000000e-01,
          0., 7.69230798e-02, 5.19999981e-01, 3.84615421e-01,
          3.04347843e-01, 7.69230798e-02, 4.76190448e-02, 0.,
          3.22580636e-02, 0., 2.94117630e-02, 3.33333313e-01,
          9.52380896e-02, 0., 2.72727281e-01, 7.69230798e-02, 0., 0.,
          9.83606577e-02, 0., 0., 0., 9.99999940e-02, 1.03448272e-01, 0.,
          0., 1.05263159e-01, 1.76470578e-01, 5.88235259e-02, 0.,
          2.33333334e-01, 0., 5.71428597e-01, 0., 8.69565159e-02 ]
      - [ 5.26315793e-02, 0., 2.17391312e-01, 0., 0., 0., 1.57894745e-01,
          0., 0., 0., 3.12500000e-02, 1.16279073e-01, 1.89655170e-01, 0.,
          1.81818202e-01, 2.72727281e-01, 5.71428537e-02, 0.,
          8.69565159e-02, 0., 1.53846160e-01, 1.73913032e-01, 0., 0., 0.,
          0., 0., 0., 1.02040820e-01, 2.77777761e-02, 0., 2.56410260e-02,
          2.99999982e-01, 0., 0., 0., 2.22222209e-01, 0., 0.,
          6.89655170e-02, 0., 1.36363640e-01, 0., 5.55555522e-02,
          3.33333313e-02, 0., 1.25000000e-01, 0., 3.03030312e-02, 0.,
          6.66666627e-02, 5.55555522e-02, 0., 0., 0., 0., 2.50000000e-01,
          6.66666701e-02, 0., 0., 0., 0., 1.73913032e-01, 0.,
          4.16666642e-02, 5.83333373e-01, 0., 7.99999982e-02, 0., 0., 0.,
          9.52380896e-02, 4.88888890e-01, 0., 0., 0., 0., 3.33333343e-01,
          0., 0., 2.30769247e-01, 0., 5.65217376e-01, 0., 0., 0.,
          7.85714269e-01, 0., 0., 0., 0., 7.89473712e-01, 1.17647052e-01,
          0., 4.24242467e-01, 0., 0., 2.38095239e-01, 0., 0. ]
      - [ 0., 0., 0., 0., 0., 0., 0., 0., 0., 1.53846160e-01, 0., 0., 0.,
          3.99999991e-02, 0., 0., 7.42857099e-01, 0., 0., 0., 0., 0., 0.,
          0., 1.15384623e-01, 9.99999940e-02, 0., 1.17647052e-01,
          6.12244904e-01, 4.72222239e-01, 0., 2.82051295e-01, 0.,
          1.99999996e-02, 0., 2.50000000e-01, 0., 0., 0., 1.72413796e-01,
          0., 4.54545468e-02, 0., 0., 0., 0., 2.74999976e-01, 0., 0., 0.,
          0., 0., 0., 0., 3.70370373e-02, 0., 8.33333284e-02, 0.,
          6.11111104e-01, 2.28571415e-01, 2.39436626e-01, 0., 0.,
          2.09302321e-01, 0., 0., 0., 0., 0., 0., 0., 0., 0., 0., 0., 0.,
          8.33333284e-02, 0., 0., 0., 0., 0., 0., 0., 0., 0., 0., 0., 0.,
          8.10810849e-02, 0., 0., 0., 0., 9.09090936e-02, 0., 0., 0.,
          1.74999997e-01, 0. ]
      - [ 1.05263159e-01, 0., 0., 2.66666651e-01, 0., 2.99999982e-01, 0.,
          2.94117659e-01, 0., 0., 0., 0., 5.51724136e-01, 3.99999991e-02,
          0., 0., 3.71428549e-01, 8.69565159e-02, 3.04347843e-01, 0., 0.,
          0., 0., 8.33333284e-02, 3.84615421e-01, 0., 0., 0., 0., 0., 0.,
          0., 0., 1.40000001e-01, 0., 0., 0., 0., 5.88235259e-02,
          2.75862068e-01, 0., 0., 1.66666672e-01, 0., 0., 1.30434781e-01,
          1.25000000e-01, 5.88235259e-02, 3.03030312e-02, 0., 0., 0., 0.,
          1.66666672e-01, 0., 0., 0., 2.66666681e-01, 3.33333343e-01,
          5.71428537e-02, 4.22535203e-02, 0., 0., 2.55813956e-01,
          4.16666642e-02, 8.33333284e-02, 0., 0., 1.53846160e-01, 0., 0.,
          0., 0., 0., 6.53846204e-01, 0., 0., 0., 0., 0., 0., 0.,
          1.30434781e-01, 6.55737668e-02, 0., 0., 0., 0., 1.03448272e-01,
          2.70270258e-02, 7.69230798e-02, 0., 2.94117630e-02, 0., 0.,
          6.66666627e-02, 1.25000000e-01, 0., 0., 0. ]
      - [ 0., 0., 2.60869563e-01, 0., 0., 0., 0., 1.76470578e-01,
          7.77777791e-01, 0., 2.50000000e-01, 0., 0., 0., 0.,
          9.09090936e-02, 0., 0., 3.47826064e-01, 1.92307711e-01,
          5.38461566e-01, 0., 0., 0., 0., 9.99999940e-02, 0., 0., 0., 0.,
          0., 0., 3.99999976e-01, 0., 0., 2.77777761e-02, 0., 0., 0.,
          6.89655170e-02, 0., 0., 1.11111104e-01, 0., 0., 8.69565159e-02,
          9.99999940e-02, 0., 3.33333343e-01, 5.40540516e-02,
          6.66666627e-02, 3.33333343e-01, 0., 1.66666672e-01, 0., 0., 0.,
          0., 0., 0., 0., 0., 8.69565159e-02, 1.16279073e-01,
          2.91666687e-01, 0., 0., 2.00000003e-01, 1.92307711e-01, 0., 0.,
          3.33333343e-01, 0., 0., 0., 2.05882356e-01, 8.33333284e-02,
          1.42857149e-01, 0., 0., 1.53846160e-01, 0., 3.47826064e-01, 0.,
          0., 2.80000001e-01, 2.85714269e-01, 0., 3.10344815e-01, 0., 0.,
          0., 2.05882356e-01, 0., 0., 6.66666627e-02, 2.08333343e-01,
          2.85714298e-01, 0., 2.17391312e-01 ]
      - [ 0., 0., 2.60869563e-01, 0., 0., 0., 0., 1.76470578e-01,
          7.77777791e-01, 0., 2.50000000e-01, 0., 0., 0., 0.,
          9.09090936e-02, 0., 0., 3.47826064e-01, 1.92307711e-01,
          5.38461566e-01, 0., 0., 0., 0., 9.99999940e-02, 0., 0., 0., 0.,
          0., 0., 3.99999976e-01, 0., 0., 2.77777761e-02, 0., 0., 0.,
          6.89655170e-02, 0., 0., 1.11111104e-01, 0., 0., 8.69565159e-02,
          9.99999940e-02, 0., 3.33333343e-01, 5.40540516e-02,
          6.66666627e-02, 3.33333343e-01, 0., 1.66666672e-01, 0., 0., 0.,
          0., 0., 0., 0., 0., 8.69565159e-02, 1.16279073e-01,
          2.91666687e-01, 0., 0., 2.00000003e-01, 1.92307711e-01, 0., 0.,
          3.33333343e-01, 0., 0., 0., 2.05882356e-01, 8.33333284e-02,
          1.42857149e-01, 0., 0., 1.53846160e-01, 0., 3.47826064e-01, 0.,
          0., 2.80000001e-01, 2.85714269e-01, 0., 3.10344815e-01, 0., 0.,
          0., 2.05882356e-01, 0., 0., 6.66666627e-02, 2.08333343e-01,
          2.85714298e-01, 0., 2.17391312e-01 ]
      - [ 5.26315793e-02, 0., 1.30434781e-01, 0., 2.35294104e-01, 0., 0.,
          0., 1.11111104e-01, 0., 2.50000000e-01, 0., 0., 0., 0., 0., 0.,
          0., 1.30434781e-01, 3.07692319e-01, 7.69230798e-02,
          4.34782580e-02, 0., 0., 7.69230798e-02, 6.49999976e-01, 0., 0.,
          0., 0., 1.49253741e-01, 5.12820520e-02, 9.99999940e-02,
          7.99999982e-02, 3.33333313e-02, 0., 2.22222209e-01,
          5.38461566e-01, 0., 2.75862068e-01, 0., 0., 3.88888896e-01, 0.,
          0., 3.91304344e-01, 0., 1.76470578e-01, 3.03030312e-02, 0., 0.,
          0., 4.49999988e-01, 0., 0., 0., 0., 2.22222228e-02,
          2.77777791e-01, 0., 0., 3.75000000e-01, 4.34782580e-02,
          1.39534891e-01, 1.25000000e-01, 0., 0., 7.99999982e-02,
          3.84615399e-02, 0., 0., 0., 0., 1.61290333e-01, 0., 0.,
          4.16666687e-01, 0., 0., 9.09090936e-02, 0., 4.11764711e-01, 0.,
          0., 4.54545468e-02, 2.00000003e-01, 0., 1.99999988e-01, 0.,
          1.62162170e-01, 0., 0., 5.88235259e-02, 0., 0., 0.,
          1.66666657e-01, 4.76190448e-02, 0., 0. ]
      - [ 4.21052635e-01, 7.40740746e-02, 0., 0., 0., 0., 0., 0., 0.,
          1.53846160e-01, 0., 1.16279073e-01, 8.62068981e-02, 0., 0., 0.,
          5.71428537e-02, 0., 8.69565159e-02, 0., 0., 0., 0., 0., 0.,
          9.99999940e-02, 3.92857134e-01, 5.88235259e-02, 1.02040820e-01,
          1.38888896e-01, 1.04477622e-01, 0., 0., 1.99999996e-02, 0., 0.,
          0., 2.30769247e-01, 0., 1.03448272e-01, 0., 6.81818187e-01,
          1.11111104e-01, 2.77777761e-02, 0., 4.78260845e-01,
          9.99999940e-02, 5.88235259e-02, 0., 0., 0., 0., 0.,
          6.66666627e-02, 1.48148149e-01, 0., 0., 2.22222228e-02,
          1.66666672e-01, 2.00000003e-01, 1.97183102e-01, 1.66666657e-01,
          0., 4.65116277e-02, 1.66666657e-01, 8.33333284e-02, 0., 0., 0.,
          0., 0., 0., 4.44444455e-02, 3.22580636e-02, 0., 0., 0., 0., 0.,
          0., 1.53846160e-01, 2.94117659e-01, 0., 0., 0., 0., 0.,
          1.99999988e-01, 1.72413796e-01, 0., 0., 2.10526317e-01, 0.,
          1.76470578e-01, 9.09090936e-02, 0., 4.16666642e-02, 0.,
          7.49999955e-02, 0. ]
      - [ 5.26315793e-02, 3.70370373e-02, 3.47826064e-01, 0.,
          1.17647052e-01, 0., 0., 1.17647052e-01, 5.55555522e-02, 0.,
          4.68750000e-01, 4.65116292e-01, 0., 0., 0., 0., 0.,
          4.34782580e-02, 8.69565159e-02, 1.53846160e-01, 0.,
          1.73913032e-01, 4.16666642e-02, 8.33333284e-02, 0., 0.,
          1.78571433e-01, 0., 0., 0., 8.95522460e-02, 0., 1.99999988e-01,
          0., 0., 0., 0., 0., 0., 0., 1.07142851e-01, 0., 0., 0.,
          1.33333325e-01, 0., 0., 0., 1.51515156e-01, 0., 2.00000003e-01,
          0., 0., 0., 0., 0., 0., 1.33333340e-01, 0., 0., 0., 0.,
          3.91304344e-01, 0., 8.33333284e-02, 0., 0., 5.19999981e-01,
          1.92307711e-01, 0., 0., 4.76190448e-02, 0., 0., 0.,
          5.88235259e-02, 0., 2.85714298e-01, 2.63157904e-01, 0., 0., 0.,
          1.73913032e-01, 0., 1.36363640e-01, 3.19999993e-01, 0., 0.,
          2.41379321e-01, 0., 0., 0., 3.52941155e-01, 0., 0.,
          1.66666672e-01, 8.33333284e-02, 4.28571433e-01, 0.,
          8.69565159e-02 ]
      - [ 1.57894745e-01, 3.70370373e-02, 2.17391312e-01, 0., 0., 0., 0.,
          0., 1.11111104e-01, 0., 3.12500000e-02, 3.72093022e-01, 0., 0.,
          0., 0., 0., 0., 5.21739125e-01, 0., 0., 0., 0., 0.,
          7.69230798e-02, 0., 2.14285702e-01, 0., 0., 0., 8.95522460e-02,
          0., 0., 0., 0., 0., 0., 0., 0., 0., 1.78571433e-01, 0., 0., 0.,
          2.33333334e-01, 0., 0., 0., 6.06060624e-02, 0., 1.33333325e-01,
          3.33333343e-01, 0., 2.00000003e-01, 0., 3.15789491e-01, 0.,
          2.22222239e-01, 0., 0., 0., 1.66666657e-01, 4.78260845e-01, 0.,
          2.50000000e-01, 0., 0., 1.59999996e-01, 1.92307711e-01, 0.,
          1.02564104e-01, 4.76190448e-02, 0., 0., 0., 5.88235259e-02, 0.,
          4.76190448e-02, 0., 0., 0., 0., 3.91304344e-01, 0., 0.,
          3.99999991e-02, 0., 0., 1.37931034e-01, 0., 0., 1.57894745e-01,
          5.58823526e-01, 0., 6.06060624e-02, 2.66666651e-01, 0.,
          3.33333343e-01, 0., 2.17391290e-02 ]
      - [ 1.05263159e-01, 0., 0., 0., 0., 0., 5.26315793e-02, 0., 0., 0.,
          2.18750015e-01, 0., 0., 2.40000010e-01, 0., 3.63636374e-01,
          8.57142881e-02, 0., 4.78260845e-01, 0., 0., 0., 8.33333284e-02,
          0., 4.61538494e-01, 0., 3.57142836e-02, 0., 0., 0., 0., 0.,
          9.99999940e-02, 7.99999982e-02, 0., 2.77777761e-02, 0.,
          7.69230798e-02, 0., 0., 1.42857134e-01, 0., 1.66666672e-01, 0.,
          0., 1.73913032e-01, 4.99999970e-02, 0., 1.81818187e-01,
          5.40540516e-02, 0., 2.77777791e-01, 0., 2.33333334e-01, 0.,
          1.31578952e-01, 0., 1.33333340e-01, 0., 0., 0., 2.08333343e-01,
          8.69565159e-02, 0., 1.25000000e-01, 8.33333284e-02, 0.,
          1.20000005e-01, 1.53846160e-01, 0., 1.79487199e-01,
          9.52380896e-02, 0., 0., 0., 0., 0., 0., 0., 0., 7.69230798e-02,
          0., 2.17391312e-01, 9.83606577e-02, 0., 0., 2.14285702e-01,
          9.99999940e-02, 6.89655170e-02, 0., 0., 1.05263159e-01,
          4.11764711e-01, 0., 1.51515156e-01, 3.00000012e-01,
          8.33333284e-02, 7.14285731e-01, 0., 0. ]
      - [ 2.10526317e-01, 0., 1.30434781e-01, 0., 1.76470578e-01, 0.,
          1.57894745e-01, 5.29411733e-01, 0., 0., 3.43750000e-01, 0.,
          1.72413792e-02, 0., 0., 0., 1.42857149e-01, 4.34782580e-02,
          4.34782580e-02, 1.53846160e-01, 7.69230798e-02, 1.30434781e-01,
          2.91666687e-01, 8.33333284e-02, 0., 3.49999994e-01,
          1.42857134e-01, 0., 0., 0., 2.68656731e-01, 0., 0.,
          6.00000024e-02, 0., 0., 1.11111104e-01, 3.07692319e-01, 0.,
          6.89655170e-02, 0., 0., 3.33333343e-01, 0., 0., 2.17391312e-01,
          0., 5.88235259e-02, 0., 0., 0., 0., 3.49999994e-01, 0., 0.,
          7.89473727e-02, 3.33333313e-01, 2.22222228e-02, 1.11111104e-01,
          0., 0., 3.33333313e-01, 4.34782580e-02, 9.30232555e-02,
          1.66666657e-01, 0., 0., 2.00000003e-01, 0., 0., 0., 0., 0., 0.,
          0., 0., 0., 9.52380896e-02, 0., 0., 0., 2.35294104e-01, 0., 0.,
          1.81818187e-01, 2.00000003e-01, 0., 0., 0., 8.10810849e-02, 0.,
          0., 5.88235259e-02, 0., 0., 6.66666627e-02, 8.33333284e-02,
          3.33333343e-01, 0., 0. ]
      - [ 4.73684222e-01, 8.51851940e-01, 0., 0., 0., 0., 0., 0., 0., 0.,
          0., 0., 1.55172408e-01, 0., 0., 0., 0., 5.21739125e-01, 0., 0.,
          0., 3.04347843e-01, 0., 2.50000000e-01, 0., 0., 1.42857134e-01,
          4.41176444e-01, 0., 0., 0., 0., 0., 0., 0., 0., 0., 0.,
          4.70588207e-01, 6.89655170e-02, 0., 4.54545468e-02,
          5.55555522e-02, 1.66666672e-01, 0., 0., 9.99999940e-02, 0.,
          6.06060624e-02, 5.40540516e-02, 0., 0., 0., 0., 4.81481493e-01,
          1.05263159e-01, 0., 1.55555561e-01, 0., 2.85714269e-02,
          2.81690136e-02, 0., 6.08695686e-01, 0., 0., 0., 0.,
          1.20000005e-01, 0., 1.30434781e-01, 3.58974397e-01, 0., 0., 0.,
          3.84615399e-02, 0., 0., 0., 2.10526317e-01, 0., 0., 0., 0., 0.,
          0., 0., 0., 0., 3.44827585e-02, 0., 0., 2.10526317e-01, 0., 0.,
          0., 4.33333308e-01, 0., 0., 0., 0. ]
      - [ 4.73684222e-01, 1.11111119e-01, 1.30434781e-01, 0., 0.,
          1.99999988e-01, 0., 5.88235259e-02, 1.66666672e-01, 0., 0., 0.,
          0., 0., 0., 0., 0., 0., 0., 0., 0., 1.30434781e-01, 0., 0., 0.,
          0., 6.07142866e-01, 0., 0., 0., 0., 0., 0., 0., 1.00000001e-01,
          0., 0., 0., 4.70588207e-01, 0., 2.14285702e-01, 0., 0., 0.,
          3.00000012e-01, 4.34782580e-02, 0., 1.76470578e-01,
          2.72727281e-01, 0., 0., 0., 0., 0., 1.48148149e-01, 0., 0., 0.,
          0., 0., 0., 0., 3.04347843e-01, 0., 0., 0., 0., 0., 0.,
          4.34782624e-01, 0., 4.76190448e-02, 0., 2.25806460e-01, 0., 0.,
          0., 4.76190448e-02, 2.10526317e-01, 0., 7.69230798e-02,
          5.29411733e-01, 0., 0., 4.54545468e-02, 1.20000005e-01, 0., 0.,
          8.96551669e-01, 0., 0., 7.89473712e-01, 0., 0., 0.,
          6.66666627e-02, 0., 0., 0., 5.43478251e-01 ]
      - [ 0., 4.44444478e-01, 0., 0., 0., 0., 0., 2.35294104e-01, 0.,
          7.69230798e-02, 3.12500000e-02, 0., 5.17241359e-02,
          1.59999996e-01, 7.27272779e-02, 1.81818187e-01, 1.14285707e-01,
          4.34782580e-02, 0., 4.61538494e-01, 7.69230798e-02,
          2.17391312e-01, 0., 2.08333343e-01, 3.07692319e-01, 0., 0., 0.,
          4.08163257e-02, 0., 0., 3.33333343e-01, 2.99999982e-01, 0.,
          3.33333313e-02, 0., 2.22222209e-01, 0., 0., 0., 0.,
          2.27272734e-02, 0., 8.33333358e-02, 0., 0., 7.49999955e-02, 0.,
          0., 5.40540516e-02, 0., 0., 0., 3.66666645e-01, 3.70370373e-02,
          0., 0., 0., 0., 0., 0., 0., 0., 0., 0., 5.00000000e-01,
          3.84615399e-02, 1.59999996e-01, 0., 0., 3.33333343e-01, 0., 0.,
          0., 2.30769247e-01, 0., 0., 2.38095239e-01, 0., 0.,
          7.69230798e-02, 0., 0., 0., 2.27272734e-01, 2.00000003e-01,
          1.42857134e-01, 0., 0., 0., 7.69230798e-02, 0., 0., 0.,
          8.78787935e-01, 3.33333313e-02, 3.33333313e-01, 0., 0., 0. ]
      - [ 0., 3.70370373e-02, 0., 0., 5.88235259e-02, 0., 2.63157904e-01,
          1.17647052e-01, 1.11111104e-01, 3.07692319e-01, 9.37500000e-02,
          0., 0., 2.00000003e-01, 0., 0., 0., 1.30434781e-01,
          4.34782580e-02, 0., 0., 1.73913032e-01, 0., 2.08333343e-01, 0.,
          4.99999970e-02, 2.14285702e-01, 0., 0., 0., 0., 0., 0., 0.,
          3.66666645e-01, 0., 0., 0., 2.35294104e-01, 3.44827585e-02,
          3.57142836e-02, 0., 0., 0., 0., 0., 0., 0., 1.51515156e-01, 0.,
          0., 0., 0., 6.66666627e-02, 0., 0., 0., 2.22222228e-02, 0., 0.,
          0., 4.16666642e-02, 2.17391312e-01, 0., 2.50000000e-01, 0., 0.,
          4.80000019e-01, 4.61538494e-01, 3.91304344e-01, 0., 0., 0.,
          3.54838699e-01, 0., 0., 3.33333313e-01, 0., 1.05263159e-01,
          1.81818187e-01, 7.69230798e-02, 5.29411733e-01, 0.,
          1.14754103e-01, 4.54545468e-02, 0., 0., 0., 6.20689631e-01, 0.,
          0., 5.26315793e-02, 0., 0., 0., 2.00000003e-01, 0.,
          1.90476179e-01, 0., 3.69565219e-01 ]
      - [ 0., 0., 0., 0., 0., 0., 0., 0., 0., 7.69230798e-02, 0., 0.,
          3.44827592e-01, 7.99999982e-02, 0., 0., 2.57142842e-01, 0.,
          4.34782580e-02, 0., 0., 0., 0., 0., 7.69230798e-02,
          3.49999994e-01, 0., 0., 2.24489793e-01, 0., 1.49253737e-02,
          1.79487199e-01, 0., 0., 0., 8.33333358e-02, 0., 2.56410260e-02,
          0., 6.89655170e-02, 0., 2.72727281e-01, 1.66666672e-01, 0., 0.,
          0., 7.49999955e-02, 5.88235259e-02, 1.21212125e-01, 0., 0., 0.,
          0., 0., 0., 0., 0., 3.11111122e-01, 5.83333313e-01,
          7.14285672e-01, 1.40845075e-01, 0., 0., 4.41860467e-01, 0., 0.,
          0., 0., 0., 0., 0., 0., 1.77777782e-01, 0., 0., 5.88235259e-02,
          0., 0., 0., 0., 0., 0., 0., 0., 0., 0., 0., 0., 0.,
          1.89189196e-01, 0., 0., 0., 0., 0., 0., 0., 0., 0., 0. ]
      - [ 0., 7.40740746e-02, 0., 0., 0., 0., 0., 0., 5.55555522e-02,
          3.84615421e-01, 3.75000000e-01, 0., 0., 4.39999998e-01, 0., 0.,
          0., 0., 4.34782580e-02, 0., 0., 0., 1.87500000e-01, 0., 0., 0.,
          0., 0., 0., 0., 0., 0., 0., 7.99999982e-02, 4.33333308e-01,
          1.66666672e-01, 0., 1.79487199e-01, 0., 0., 3.57142836e-02, 0.,
          0., 0., 0., 0., 0., 1.17647052e-01, 3.03030312e-02,
          2.43243247e-01, 0., 0., 0., 1.33333325e-01, 3.70370373e-02, 0.,
          0., 0., 0., 0., 0., 5.00000000e-01, 0., 9.30232555e-02,
          4.16666642e-02, 8.33333284e-02, 3.07692319e-01, 1.20000005e-01,
          3.84615399e-02, 0., 5.12820542e-01, 0., 0., 5.48387110e-01, 0.,
          2.94117630e-02, 0., 0., 0., 0., 2.30769247e-01, 1.76470578e-01,
          0., 4.91803288e-02, 0., 0., 0., 0., 0., 0., 1.53846160e-01, 0.,
          0., 1.76470578e-01, 0., 3.66666645e-01, 2.08333343e-01,
          4.28571433e-01, 0., 0. ]
      - [ 0., 0., 0., 0., 0., 0., 1.05263159e-01, 5.88235259e-02, 0., 0.,
          3.12500000e-02, 0., 0., 0., 0., 0., 0., 3.04347843e-01, 0., 0.,
          0., 3.04347843e-01, 6.25000000e-02, 1.66666657e-01, 0.,
          1.49999991e-01, 0., 0., 2.04081628e-02, 0., 0., 0., 0., 0.,
          4.33333308e-01, 0., 0., 0., 1.17647052e-01, 3.10344815e-01, 0.,
          0., 0., 5.55555522e-02, 0., 0., 0., 0., 0., 0., 0., 0., 0., 0.,
          1.11111119e-01, 0., 0., 6.66666701e-02, 0., 0., 0., 0., 0., 0.,
          6.66666627e-01, 0., 0., 7.20000029e-01, 7.30769217e-01,
          3.04347843e-01, 5.12820520e-02, 0., 0., 9.67741981e-02, 0., 0.,
          0., 0., 1.05263159e-01, 0., 0., 0., 0., 3.27868834e-02,
          9.09090936e-02, 0., 0., 0., 4.48275834e-01, 0., 0.,
          1.05263159e-01, 0., 0., 0., 2.66666651e-01, 0., 5.71428597e-01,
          0., 6.30434752e-01 ]
      - [ 5.78947365e-01, 2.59259284e-01, 3.47826064e-01, 0., 0., 0., 0.,
          0., 1.11111104e-01, 0., 3.12500000e-02, 0., 0., 0., 0.,
          1.81818187e-01, 2.57142842e-01, 0., 4.78260845e-01,
          1.15384623e-01, 0., 0., 0., 0., 0., 2.99999982e-01,
          3.21428567e-01, 8.82352889e-02, 0., 0., 0., 0., 0., 0.,
          1.33333325e-01, 0., 1.11111104e-01, 0., 0., 1.03448272e-01,
          2.85714269e-01, 0., 0., 0., 0., 0., 0., 1.76470578e-01,
          6.66666687e-01, 1.08108103e-01, 6.66666627e-02, 0., 0., 0., 0.,
          7.89473727e-02, 0., 2.44444445e-01, 2.77777791e-01, 0., 0., 0.,
          8.69565159e-02, 1.39534891e-01, 0., 0., 0., 0., 7.69230798e-02,
          0., 2.56410260e-02, 0., 0., 3.22580636e-02, 0., 5.88235259e-02,
          0., 1.42857149e-01, 0., 0., 7.69230798e-02, 1.76470578e-01,
          2.17391312e-01, 1.63934417e-02, 0., 1.59999996e-01, 0., 0.,
          1.03448272e-01, 1.08108103e-01, 7.69230798e-02, 3.15789491e-01,
          1.76470578e-01, 0., 0., 0., 0., 4.76190448e-02, 0.,
          4.34782580e-02 ]
      - [ 2.10526317e-01, 7.40740746e-02, 0., 0., 0., 0., 0., 0.,
          2.22222209e-01, 0., 0., 9.30232555e-02, 0., 0., 0.,
          4.54545468e-01, 5.71428537e-02, 8.69565159e-02, 0., 0., 0., 0.,
          0., 0., 0., 0., 0., 0., 2.04081640e-01, 0., 0., 7.69230798e-02,
          0., 0., 0., 0., 5.55555582e-01, 0., 1.76470578e-01, 0., 0., 0.,
          0., 5.55555522e-02, 1.33333325e-01, 0., 0., 0., 1.51515156e-01,
          1.08108103e-01, 0., 1.11111104e-01, 0., 0., 4.44444478e-01,
          1.84210539e-01, 2.50000000e-01, 8.88888910e-02, 1.94444448e-01,
          2.00000003e-01, 1.40845068e-02, 8.33333284e-02, 0.,
          2.32558139e-02, 0., 2.50000000e-01, 2.30769247e-01, 0., 0., 0.,
          0., 9.52380896e-02, 0., 0., 7.69230798e-02, 6.76470578e-01, 0.,
          0., 4.73684222e-01, 0., 5.38461566e-01, 0., 0., 1.80327863e-01,
          0., 0., 0., 2.99999982e-01, 0., 3.51351351e-01, 2.30769247e-01,
          5.26315793e-02, 0., 2.35294104e-01, 0., 0., 0., 0.,
          9.99999940e-02, 0. ]
      - [ 0., 0., 0., 0., 0., 0., 0., 0., 1.66666672e-01, 3.84615421e-01,
          1.25000000e-01, 1.39534891e-01, 3.44827585e-02, 0., 0.,
          2.72727281e-01, 0., 0., 4.34782580e-02, 0., 0., 0.,
          1.25000000e-01, 0., 0., 0., 0., 0., 0., 0., 5.97014949e-02,
          2.05128208e-01, 0., 1.40000001e-01, 0., 0., 0., 3.33333343e-01,
          5.88235259e-02, 0., 0., 1.59090921e-01, 2.77777791e-01, 0.,
          1.00000001e-01, 4.34782624e-01, 0., 0., 0., 2.70270288e-01, 0.,
          0., 0., 5.00000000e-01, 0., 0., 0., 0., 0., 0., 0.,
          5.83333373e-01, 0., 2.32558139e-02, 0., 3.33333313e-01,
          7.69230798e-02, 0., 0., 0., 4.61538494e-01, 0., 5.11111140e-01,
          0., 0., 0., 0., 0., 0., 0., 7.69230798e-02, 3.52941155e-01, 0.,
          9.83606577e-02, 0., 0., 0., 0., 0., 0., 0., 0., 0., 0., 0., 0.,
          2.50000000e-01, 0., 4.99999970e-02, 0. ]
      - [ 5.26315793e-02, 4.81481493e-01, 1.73913032e-01, 0., 0., 0., 0.,
          0., 0., 0., 0., 2.32558146e-01, 2.24137917e-01, 0.,
          1.81818195e-02, 2.72727281e-01, 0., 0., 0., 3.84615399e-02, 0.,
          8.69565159e-02, 0., 4.16666642e-02, 0., 0., 0., 7.94117570e-01,
          0., 0., 7.46268705e-02, 0., 0., 0., 0., 2.77777761e-02, 0., 0.,
          5.88235259e-02, 0., 7.14285672e-02, 0., 0., 5.55555522e-02,
          6.66666627e-02, 0., 1.25000000e-01, 0., 0., 1.35135144e-01, 0.,
          0., 0., 0., 1.85185194e-01, 1.57894745e-01, 1.66666657e-01,
          2.44444445e-01, 0., 4.57142830e-01, 2.81690136e-02, 0.,
          4.34782624e-01, 0., 0., 3.33333313e-01, 0., 0., 1.53846160e-01,
          0., 1.28205135e-01, 0., 8.88888910e-02, 0., 0., 2.94117630e-02,
          0., 0., 2.63157904e-01, 9.09090936e-02, 2.30769247e-01, 0., 0.,
          0., 0., 0., 0., 2.99999982e-01, 6.89655170e-02, 0.,
          7.69230798e-02, 3.15789491e-01, 1.47058830e-01, 0., 0., 0., 0.,
          0., 2.49999985e-02, 0. ]
      - [ 0., 7.40740746e-02, 0., 0., 0., 0., 0., 4.11764711e-01,
          2.22222209e-01, 3.84615421e-01, 2.81250000e-01, 4.65116277e-02,
          1.72413792e-02, 3.99999991e-02, 0., 0., 0., 2.17391312e-01,
          3.47826064e-01, 0., 2.30769247e-01, 3.04347843e-01, 0.,
          1.66666657e-01, 0., 9.99999940e-02, 4.64285672e-01, 0., 0., 0.,
          0., 0., 9.99999940e-02, 0., 2.66666651e-01, 0., 2.22222209e-01,
          0., 0., 0., 0., 0., 1.11111104e-01, 0., 0., 2.17391312e-01, 0.,
          0., 0., 3.24324340e-01, 0., 2.77777791e-01, 2.50000000e-01,
          3.33333343e-01, 0., 0., 8.33333284e-02, 6.66666701e-02,
          2.77777761e-02, 0., 0., 8.33333284e-02, 3.91304344e-01,
          2.32558139e-02, 0., 0., 0., 3.99999991e-02, 0., 0.,
          1.79487199e-01, 0., 0., 9.67741981e-02, 3.84615399e-02, 0., 0.,
          0., 0., 0., 0., 1.76470578e-01, 0., 1.14754103e-01,
          1.36363640e-01, 1.59999996e-01, 7.14285672e-02, 0.,
          1.37931034e-01, 0., 0., 0., 8.82352889e-02, 0., 1.81818187e-01,
          6.66666627e-02, 2.91666687e-01, 1.90476179e-01, 0., 0. ]
      - [ 1.57894745e-01, 0., 0., 0., 0., 0., 0., 0., 1.66666672e-01,
          7.69230798e-02, 0., 0., 0., 3.99999991e-02, 0., 0.,
          1.42857149e-01, 0., 0., 0., 0., 0., 1.25000000e-01, 0., 0.,
          5.49999952e-01, 2.14285702e-01, 0., 2.04081628e-02, 0., 0., 0.,
          0., 0., 3.33333313e-02, 0., 0., 1.79487199e-01, 0., 0., 0., 0.,
          1.11111104e-01, 0., 1.00000001e-01, 1.30434781e-01, 0., 0.,
          9.09090936e-02, 2.70270258e-02, 0., 0., 2.99999982e-01,
          3.33333313e-02, 7.40740746e-02, 7.89473727e-02, 0., 0., 0., 0.,
          0., 0., 4.34782580e-02, 2.32558139e-02, 6.25000000e-01, 0., 0.,
          2.40000010e-01, 4.23076928e-01, 0., 2.56410271e-01, 0., 0.,
          1.29032254e-01, 0., 0., 8.33333284e-02, 0., 0., 0., 0., 0., 0.,
          1.63934417e-02, 0., 0., 0., 0., 2.75862068e-01, 2.97297299e-01,
          0., 2.63157904e-01, 0., 0., 3.03030312e-02, 2.66666651e-01,
          1.25000000e-01, 4.76190478e-01, 0., 6.73913002e-01 ]
      - [ 0., 0., 0., 0., 0., 0., 0., 5.88235259e-02, 1.11111104e-01, 0.,
          0., 1.62790701e-01, 5.17241359e-02, 0., 3.27272743e-01, 0., 0.,
          0., 1.73913032e-01, 0., 0., 8.69565159e-02, 0., 4.16666642e-02,
          0., 0., 0., 0., 0., 0., 5.97014949e-02, 0., 1.99999988e-01, 0.,
          0., 0., 1.11111104e-01, 0., 0., 0., 4.64285672e-01,
          3.86363655e-01, 0., 2.50000000e-01, 0., 0., 7.49999955e-02, 0.,
          1.51515156e-01, 0., 0., 0., 0., 0., 0., 0., 0., 4.44444455e-02,
          1.38888896e-01, 2.28571415e-01, 0., 0., 1.30434781e-01,
          1.39534891e-01, 0., 4.16666687e-01, 1.53846160e-01,
          1.59999996e-01, 1.15384623e-01, 0., 0., 0., 0., 0.,
          1.15384623e-01, 5.88235259e-02, 8.33333284e-02, 0.,
          2.63157904e-01, 0., 0., 0., 0., 2.13114753e-01, 0., 0.,
          2.14285702e-01, 0., 3.44827585e-02, 2.70270258e-02,
          3.07692319e-01, 0., 0., 1.76470578e-01, 9.09090936e-02, 0., 0.,
          0., 9.99999940e-02, 4.56521720e-01 ]
      - [ 0., 3.70370373e-02, 0., 0., 0., 0., 0., 1.76470578e-01, 0., 0.,
          6.25000000e-02, 9.30232555e-02, 1.72413796e-01, 0., 0., 0., 0.,
          7.39130437e-01, 3.47826064e-01, 4.23076928e-01, 0.,
          4.78260845e-01, 0., 6.25000000e-01, 0., 0., 4.64285672e-01, 0.,
          0., 0., 8.95522460e-02, 0., 0., 0., 0., 0., 0., 0.,
          4.11764711e-01, 3.44827585e-02, 0., 0., 0., 3.61111104e-01, 0.,
          0., 0., 0., 9.09090936e-02, 2.16216207e-01, 0., 0., 0., 0., 0.,
          0., 0., 5.55555582e-01, 0., 0., 0., 0., 1.73913032e-01, 0., 0.,
          0., 0., 0., 0., 0., 2.56410260e-02, 0., 0., 0., 0.,
          8.82352889e-02, 0., 3.33333343e-01, 1.57894745e-01, 0., 0., 0.,
          8.69565159e-02, 1.14754103e-01, 2.72727281e-01, 1.59999996e-01,
          0., 9.99999940e-02, 0., 0., 0., 0., 0., 0., 0., 0., 0., 0., 0.,
          0. ]
      - [ 0., 0., 2.60869563e-01, 0., 0., 0., 0., 1.76470578e-01,
          7.77777791e-01, 0., 2.50000000e-01, 0., 0., 0., 0.,
          9.09090936e-02, 0., 0., 3.47826064e-01, 1.92307711e-01,
          5.38461566e-01, 0., 0., 0., 0., 9.99999940e-02, 0., 0., 0., 0.,
          0., 0., 3.99999976e-01, 0., 0., 2.77777761e-02, 0., 0., 0.,
          6.89655170e-02, 0., 0., 1.11111104e-01, 0., 0., 8.69565159e-02,
          9.99999940e-02, 0., 3.33333343e-01, 5.40540516e-02,
          6.66666627e-02, 3.33333343e-01, 0., 1.66666672e-01, 0., 0., 0.,
          0., 0., 0., 0., 0., 8.69565159e-02, 1.16279073e-01,
          2.91666687e-01, 0., 0., 2.00000003e-01, 1.92307711e-01, 0., 0.,
          3.33333343e-01, 0., 0., 0., 2.05882356e-01, 8.33333284e-02,
          1.42857149e-01, 0., 0., 1.53846160e-01, 0., 3.47826064e-01, 0.,
          0., 2.80000001e-01, 2.85714269e-01, 0., 3.10344815e-01, 0., 0.,
          0., 2.05882356e-01, 0., 0., 6.66666627e-02, 2.08333343e-01,
          2.85714298e-01, 0., 2.17391312e-01 ]
      - [ 1.57894745e-01, 2.59259284e-01, 8.69565159e-02, 0.,
          1.17647052e-01, 0., 0., 0., 0., 7.69230798e-02, 0., 0.,
          4.48275834e-01, 2.80000001e-01, 1.81818202e-01, 0., 0., 0.,
          8.69565159e-02, 0., 3.07692319e-01, 4.34782580e-02, 0., 0.,
          1.15384623e-01, 0., 0., 8.82352889e-02, 0., 0., 0., 0., 0., 0.,
          0., 2.22222209e-01, 0., 0., 0., 6.89655170e-02, 7.14285672e-02,
          9.09090936e-01, 3.33333343e-01, 0., 0., 0., 5.74999988e-01, 0.,
          0., 0., 1.33333325e-01, 1.66666672e-01, 0., 0., 0., 0., 0., 0.,
          0., 4.28571433e-01, 0., 0., 0., 0., 0., 0., 0., 0., 0., 0., 0.,
          0., 2.22222239e-01, 3.22580636e-02, 1.15384623e-01, 0., 0., 0.,
          0., 9.09090936e-02, 0., 0., 0., 1.63934417e-02, 0., 0.,
          1.42857134e-01, 0., 0., 2.70270258e-02, 0., 0., 8.82352889e-02,
          5.88235259e-02, 0., 0., 0., 0., 2.49999985e-02, 0. ]
      - [ 0., 1.48148149e-01, 0., 0., 0., 0., 0., 0., 0., 0.,
          3.12500000e-02, 0., 0., 0., 2.18181834e-01, 2.72727281e-01,
          1.71428576e-01, 4.34782580e-02, 2.60869563e-01, 0., 0., 0., 0.,
          0., 1.15384623e-01, 0., 0., 8.82352889e-02, 2.04081628e-02,
          5.55555582e-01, 0., 1.28205135e-01, 0., 3.99999991e-02, 0.,
          2.77777761e-02, 0., 5.64102590e-01, 2.35294104e-01, 0.,
          2.14285702e-01, 0., 0., 0., 0., 4.34782580e-02, 0., 0., 0.,
          4.86486495e-01, 0., 0., 0., 0., 7.40740746e-02, 0., 0., 0.,
          2.50000000e-01, 5.71428537e-02, 2.25352108e-01, 0., 0.,
          2.32558146e-01, 0., 1.66666657e-01, 3.84615399e-02, 0., 0., 0.,
          2.05128208e-01, 0., 2.22222228e-02, 6.45161271e-02, 0., 0., 0.,
          0., 2.10526317e-01, 0., 1.53846160e-01, 0., 0., 4.91803288e-02,
          0., 0., 0., 0., 6.89655170e-02, 0., 0., 0., 2.94117630e-02, 0.,
          0., 0., 4.16666642e-02, 0., 2.74999976e-01, 0. ]
      - [ 1.57894745e-01, 1.85185194e-01, 4.34782580e-02, 0.,
          5.88235259e-02, 0., 0., 0., 0., 0., 0., 0., 2.58620679e-01,
          7.99999982e-02, 1.45454556e-01, 0., 2.85714269e-02, 0., 0.,
          3.84615399e-02, 7.69230798e-02, 0., 0., 0., 1.15384623e-01, 0.,
          0., 2.94117659e-01, 0., 3.33333343e-01, 0., 0., 0., 0., 0., 0.,
          0., 0., 0., 3.44827585e-02, 0., 5.00000000e-01, 2.22222209e-01,
          0., 0., 4.34782580e-02, 1.99999988e-01, 0., 0., 0., 0., 0.,
          1.49999991e-01, 6.66666627e-02, 3.70370373e-02, 0.,
          8.33333284e-02, 0., 0., 7.14285672e-01, 7.04225376e-02, 0., 0.,
          0., 4.16666642e-02, 0., 0., 0., 0., 0., 0., 0., 3.33333343e-01,
          0., 2.30769247e-01, 0., 8.33333284e-02, 0., 0., 1.81818187e-01,
          0., 5.88235259e-02, 0., 0., 4.54545468e-02, 0., 2.85714269e-01,
          9.99999940e-02, 0., 0., 7.69230798e-02, 5.26315793e-02, 0., 0.,
          3.03030312e-02, 1.66666672e-01, 1.25000000e-01, 0.,
          4.25000012e-01, 0. ]
      - [ 0., 0., 8.69565159e-02, 2.00000003e-01, 0., 3.99999976e-01,
          1.57894745e-01, 0., 4.44444418e-01, 0., 9.37500000e-02, 0., 0.,
          0., 0., 0., 0., 1.30434781e-01, 3.04347843e-01, 0.,
          7.69230798e-02, 0., 2.29166657e-01, 8.33333284e-02, 0., 0.,
          7.14285672e-02, 0., 0., 0., 0., 0., 0., 0., 0., 8.33333358e-02,
          0., 0., 1.76470578e-01, 0., 3.57142836e-02, 0., 0., 0.,
          6.66666627e-02, 0., 0., 0., 1.21212125e-01, 5.40540516e-02, 0.,
          1.11111104e-01, 1.99999988e-01, 0., 0., 2.36842111e-01, 0., 0.,
          0., 0., 2.81690136e-02, 0., 4.34782580e-02, 0., 5.00000000e-01,
          0., 0., 2.80000001e-01, 3.84615421e-01, 1.73913032e-01,
          3.33333343e-01, 0., 0., 0., 1.15384623e-01, 0., 0., 0.,
          1.05263159e-01, 0., 0., 0., 3.47826064e-01, 4.91803288e-02, 0.,
          0., 0., 0., 3.44827585e-02, 0., 0., 5.26315793e-02,
          5.88235259e-02, 0., 6.06060624e-01, 3.00000012e-01, 0.,
          5.71428597e-01, 0., 1.52173921e-01 ]
      - [ 0., 1.11111119e-01, 0., 0., 0., 0., 0., 0., 0., 7.69230798e-02,
          0., 4.65116277e-02, 0., 0., 0., 0., 5.99999964e-01, 0., 0., 0.,
          0., 0., 0., 0., 0., 0., 0., 5.88235259e-02, 8.16326514e-02,
          5.55555582e-01, 0., 7.69230798e-02, 0., 0., 0., 2.77777791e-01,
          0., 0., 0., 4.13793087e-01, 0., 0., 0., 1.38888896e-01, 0., 0.,
          3.49999994e-01, 0., 0., 0., 0., 0., 0., 0., 1.11111119e-01,
          5.26315793e-02, 0., 0., 9.16666627e-01, 1.42857149e-01,
          3.94366205e-01, 0., 0., 3.72093022e-01, 0., 0., 1.15384623e-01,
          0., 0., 0., 0., 0., 0., 0., 0., 0., 0., 0., 0., 0., 0., 0., 0.,
          0., 0., 0., 0., 9.99999940e-02, 0., 8.10810849e-02,
          7.69230798e-02, 0., 0., 0., 3.03030312e-02, 0., 0., 0.,
          7.49999955e-02, 0. ]
      - [ 1.57894745e-01, 0., 0., 2.00000003e-01, 0., 0., 2.10526317e-01,
          0., 2.77777791e-01, 0., 0., 0., 0., 0., 0., 0., 0.,
          2.17391312e-01, 0., 0., 0., 8.69565159e-02, 0., 1.25000000e-01,
          0., 0., 3.21428567e-01, 0., 0., 0., 0., 0., 0., 0.,
          6.66666627e-02, 0., 1.11111104e-01, 0., 5.88235319e-01,
          3.44827585e-02, 0., 0., 0., 2.77777761e-02, 4.00000006e-01, 0.,
          0., 0., 3.03030312e-01, 5.40540516e-02, 0., 0., 0., 0.,
          2.59259284e-01, 1.05263159e-01, 0., 2.22222228e-02, 0., 0., 0.,
          0., 2.17391312e-01, 0., 8.33333284e-02, 0., 0., 7.99999982e-02,
          3.07692319e-01, 5.65217376e-01, 7.69230798e-02, 4.76190448e-02,
          0., 6.45161271e-02, 0., 0., 0., 0., 6.84210539e-01, 0.,
          7.69230798e-02, 0., 0., 9.83606577e-02, 0., 0., 0., 0.,
          4.48275834e-01, 0., 0., 5.78947365e-01, 1.76470578e-01, 0.,
          1.21212125e-01, 0., 0., 9.52380896e-02, 0., 4.13043469e-01 ]
      - [ 0., 7.40740746e-02, 2.60869563e-01, 0., 0., 0., 0.,
          1.76470578e-01, 0., 0., 6.87500000e-01, 0., 0., 1.20000005e-01,
          9.09091011e-02, 0., 0., 0., 8.69565159e-02, 2.30769247e-01,
          1.53846160e-01, 0., 3.33333313e-01, 0., 1.15384623e-01, 0., 0.,
          0., 0., 0., 0., 0., 0., 1.20000005e-01, 0., 0., 0.,
          1.79487199e-01, 0., 3.44827585e-02, 0., 0., 5.55555522e-02, 0.,
          0., 1.73913032e-01, 0., 5.88235259e-02, 0., 5.40540516e-02, 0.,
          1.66666672e-01, 0., 1.33333325e-01, 0., 0., 0., 0., 0., 0., 0.,
          7.50000000e-01, 0., 4.65116277e-02, 0., 0., 0., 3.19999993e-01,
          0., 0., 5.12820520e-02, 0., 2.22222228e-02, 0., 0., 0., 0., 0.,
          0., 0., 0., 4.70588207e-01, 0., 0., 2.27272734e-01,
          6.00000024e-01, 0., 0., 3.44827585e-02, 0., 4.61538494e-01, 0.,
          2.94117659e-01, 0., 0., 1.33333325e-01, 3.33333313e-01,
          4.28571433e-01, 0., 0. ]
      - [ 0., 1.48148149e-01, 0., 0., 0., 0., 0., 0., 0., 0.,
          3.12500000e-02, 0., 0., 0., 2.36363649e-01, 2.72727281e-01,
          8.57142881e-02, 4.34782580e-02, 2.60869563e-01, 0., 0., 0., 0.,
          0., 1.15384623e-01, 0., 0., 8.82352889e-02, 0., 5.00000000e-01,
          0., 1.02564104e-01, 0., 3.99999991e-02, 0., 5.55555522e-02, 0.,
          5.89743614e-01, 1.76470578e-01, 0., 1.42857134e-01,
          2.27272734e-02, 0., 0., 3.33333313e-02, 4.34782580e-02, 0., 0.,
          0., 4.59459484e-01, 0., 0., 0., 0., 1.11111119e-01,
          2.63157897e-02, 0., 0., 2.50000000e-01, 1.42857149e-01,
          2.67605633e-01, 4.16666642e-02, 0., 2.32558146e-01, 0.,
          1.66666657e-01, 3.84615399e-02, 0., 0., 0., 1.79487199e-01, 0.,
          2.22222228e-02, 3.22580636e-02, 0., 0., 0., 0., 1.57894745e-01,
          0., 1.53846160e-01, 0., 0., 6.55737668e-02, 0., 0., 0., 0., 0.,
          0., 0., 0., 2.94117630e-02, 0., 0., 0., 4.16666642e-02, 0.,
          2.99999982e-01, 0. ]
      - [ 1.57894745e-01, 3.70370373e-02, 2.60869563e-01, 0., 0., 0.,
          3.15789491e-01, 5.88235259e-02, 1.11111104e-01, 0.,
          1.87500000e-01, 0., 0., 0., 0., 1.81818187e-01, 0.,
          4.34782580e-02, 4.34782580e-02, 1.15384623e-01, 0.,
          2.17391312e-01, 0., 0., 0., 0., 1.42857134e-01, 0., 0., 0., 0.,
          0., 9.99999940e-02, 6.00000024e-02, 1.66666672e-01, 0., 0., 0.,
          1.76470578e-01, 0., 1.07142851e-01, 0., 0., 0., 1.33333325e-01,
          0., 0., 3.52941155e-01, 2.12121233e-01, 2.70270258e-02, 0., 0.,
          0., 0., 0., 0., 1.66666657e-01, 2.22222228e-02, 0., 0., 0., 0.,
          4.78260845e-01, 0., 1.25000000e-01, 8.33333284e-02, 0.,
          7.59999990e-01, 3.46153855e-01, 1.30434781e-01, 0.,
          4.76190448e-02, 0., 0., 0., 0., 0., 4.76190478e-01, 0., 0.,
          3.07692319e-01, 1.17647052e-01, 2.17391312e-01, 0.,
          4.54545468e-02, 3.60000014e-01, 0., 0., 3.79310340e-01, 0., 0.,
          3.15789491e-01, 4.11764711e-01, 0., 0., 0., 0., 9.52380896e-02,
          0., 1.73913032e-01 ]
      - [ 0., 0., 0., 1.33333325e-01, 0., 3.99999976e-01, 1.57894745e-01,
          0., 2.22222209e-01, 0., 2.18750015e-01, 2.32558146e-01, 0., 0.,
          0., 0., 0., 0., 7.39130437e-01, 0., 1.53846160e-01, 0.,
          3.12500000e-01, 0., 0., 0., 0., 0., 0., 0., 5.97014949e-02, 0.,
          1.99999988e-01, 1.99999996e-02, 0., 0., 4.44444418e-01, 0.,
          1.76470578e-01, 0., 0., 0., 0., 0., 6.99999988e-01, 0., 0., 0.,
          2.12121233e-01, 5.40540516e-02, 0., 1.66666672e-01, 0.,
          3.33333313e-02, 0., 0., 4.16666687e-01, 0., 0., 0., 0.,
          2.91666687e-01, 4.34782580e-02, 2.32558139e-02, 0., 0., 0.,
          3.19999993e-01, 7.69230798e-02, 0., 2.56410260e-02, 0.,
          6.66666701e-02, 0., 0., 0., 0., 0., 2.10526317e-01, 0.,
          2.30769247e-01, 0., 1.73913032e-01, 1.14754103e-01, 0., 0.,
          7.14285672e-02, 0., 1.72413796e-01, 0., 0., 0., 2.05882356e-01,
          0., 0., 0., 0., 2.85714298e-01, 0., 4.13043469e-01 ]
      - [ 0., 2.96296299e-01, 2.17391312e-01, 0., 0., 0., 0., 0.,
          2.22222209e-01, 0., 3.12500000e-02, 0., 1.03448272e-01, 0.,
          5.45454584e-02, 9.09090936e-02, 0., 0., 0., 4.61538494e-01, 0.,
          8.69565159e-02, 0., 4.16666642e-02, 1.92307711e-01, 0., 0.,
          4.41176444e-01, 0., 0., 0., 3.07692319e-01, 0., 2.19999999e-01,
          0., 5.55555522e-02, 1.11111104e-01, 0., 5.88235259e-02, 0.,
          7.14285672e-02, 1.36363640e-01, 0., 0., 0., 0., 0.,
          2.94117659e-01, 0., 1.08108103e-01, 0., 0., 0., 0.,
          3.70370373e-02, 0., 8.33333284e-02, 0., 5.55555522e-02,
          2.85714269e-02, 0., 0., 8.69565159e-02, 9.30232555e-02, 0.,
          3.33333313e-01, 0., 4.00000006e-01, 1.15384623e-01, 0.,
          5.12820520e-02, 0., 1.33333340e-01, 3.22580636e-02, 0., 0., 0.,
          4.76190478e-01, 2.63157904e-01, 0., 1.53846160e-01,
          2.35294104e-01, 1.30434781e-01, 0., 0., 0., 7.14285672e-02, 0.,
          0., 0., 3.07692319e-01, 0., 1.47058830e-01, 1.76470578e-01, 0.,
          0., 8.33333284e-02, 0., 3.24999988e-01, 0. ]
      - [ 0., 0., 1.73913032e-01, 0., 2.94117659e-01, 0., 5.26315793e-02,
          1.76470578e-01, 5.55555522e-02, 7.69230798e-02, 9.37500000e-02,
          0., 0., 0., 0., 9.09090936e-02, 0., 0., 0., 1.53846160e-01, 0.,
          4.34782580e-02, 0., 0., 7.69230798e-02, 4.49999988e-01,
          1.07142851e-01, 0., 0., 0., 1.49253741e-01, 2.56410260e-02,
          1.99999988e-01, 1.20000005e-01, 6.66666627e-02, 0.,
          1.11111104e-01, 5.12820542e-01, 0., 1.72413796e-01, 0., 0.,
          4.44444418e-01, 0., 0., 4.78260845e-01, 0., 1.76470578e-01,
          3.03030312e-02, 0., 0., 0., 2.99999982e-01, 6.66666627e-02, 0.,
          0., 0., 6.66666701e-02, 2.77777791e-01, 0., 0., 2.91666687e-01,
          0., 2.09302321e-01, 0., 0., 0., 1.20000005e-01, 3.84615399e-02,
          0., 0., 0., 0., 9.67741981e-02, 0., 2.94117630e-02,
          2.50000000e-01, 4.76190448e-02, 0., 0., 7.69230798e-02,
          5.29411733e-01, 0., 0., 4.54545468e-02, 3.19999993e-01, 0.,
          1.99999988e-01, 0., 1.89189196e-01, 0., 0., 1.76470578e-01, 0.,
          0., 0., 2.08333343e-01, 0., 0., 0. ]
      - [ 0., 0., 0., 0., 0., 0., 0., 2.94117659e-01, 2.22222209e-01, 0.,
          0., 1.16279073e-01, 8.62068981e-02, 0., 2.18181834e-01, 0.,
          8.57142881e-02, 0., 1.73913032e-01, 3.84615399e-02,
          7.69230798e-02, 1.30434781e-01, 0., 0., 0., 0., 0., 0., 0., 0.,
          0., 0., 2.99999982e-01, 0., 0., 0., 2.22222209e-01, 0., 0., 0.,
          3.92857134e-01, 9.09090936e-02, 0., 3.33333343e-01, 0., 0.,
          4.99999970e-02, 0., 2.72727281e-01, 0., 0., 5.55555522e-02, 0.,
          0., 0., 0., 0., 8.88888910e-02, 1.38888896e-01, 2.28571415e-01,
          0., 0., 0., 1.86046511e-01, 0., 3.33333313e-01, 1.15384623e-01,
          1.20000005e-01, 1.15384623e-01, 0., 2.56410260e-02, 0., 0., 0.,
          2.30769247e-01, 5.88235259e-02, 8.33333284e-02, 0.,
          3.15789491e-01, 0., 1.53846160e-01, 0., 0., 3.11475396e-01, 0.,
          0., 1.42857134e-01, 0., 0., 0., 2.30769247e-01, 0., 0.,
          1.76470578e-01, 1.21212125e-01, 0., 0., 0., 0., 4.78260845e-01 ]
      - [ 1.05263159e-01, 0., 0., 1.33333325e-01, 0., 3.99999976e-01,
          2.10526317e-01, 0., 3.33333343e-01, 0., 6.25000000e-02, 0., 0.,
          0., 3.63636389e-02, 0., 0., 1.30434781e-01, 2.60869563e-01, 0.,
          2.30769247e-01, 0., 1.66666657e-01, 8.33333284e-02, 0., 0.,
          7.14285672e-02, 8.82352889e-02, 2.04081628e-02, 0., 0., 0., 0.,
          0., 1.66666672e-01, 8.33333358e-02, 0., 0., 2.35294104e-01, 0.,
          1.42857134e-01, 0., 0., 0., 0., 0., 0., 0., 9.09090936e-02,
          5.40540516e-02, 0., 0., 9.99999940e-02, 0., 0., 2.36842111e-01,
          8.33333284e-02, 0., 0., 0., 5.63380271e-02, 0., 4.34782580e-02,
          0., 4.58333313e-01, 0., 0., 2.40000010e-01, 2.69230783e-01,
          2.60869563e-01, 4.61538494e-01, 0., 0., 0., 1.92307711e-01, 0.,
          0., 0., 5.26315793e-02, 0., 0., 0., 8.69565159e-02,
          1.63934417e-02, 1.36363640e-01, 0., 0., 0., 6.89655170e-02, 0.,
          0., 1.05263159e-01, 0., 0., 6.06060624e-01, 3.33333343e-01, 0.,
          4.76190478e-01, 0., 8.69565159e-02 ]
      - [ 0., 0., 0., 0., 0., 0., 1.05263159e-01, 0., 5.55555522e-02, 0.,
          0., 2.32558139e-02, 1.03448272e-01, 3.99999991e-02,
          1.45454556e-01, 2.72727281e-01, 0., 2.17391312e-01, 0.,
          3.84615399e-02, 0., 0., 0., 4.16666687e-01, 0., 0., 0., 0.,
          4.89795923e-01, 0., 0., 5.12820520e-02, 0., 0., 0.,
          2.22222209e-01, 0., 5.12820520e-02, 1.17647052e-01, 0.,
          3.57142836e-02, 6.81818202e-02, 0., 0., 0., 0., 0., 0., 0.,
          1.08108103e-01, 0., 0., 0., 0., 3.70370373e-02, 0., 0., 0., 0.,
          0., 3.94366205e-01, 0., 0., 0., 0., 4.16666687e-01, 0., 0., 0.,
          1.30434781e-01, 5.12820542e-01, 0., 5.11111140e-01, 0.,
          3.84615399e-02, 0., 0., 0., 1.57894745e-01, 0., 3.07692319e-01,
          0., 0., 0., 0., 0., 0., 0., 0., 0., 0., 0., 0., 0.,
          3.93939406e-01, 0., 0., 0., 2.74999976e-01, 0. ]
      - [ 2.10526317e-01, 4.81481493e-01, 1.73913032e-01, 0., 0.,
          9.99999940e-02, 0., 0., 0., 0., 0., 2.55813956e-01,
          1.72413796e-01, 0., 0., 9.09090936e-02, 0., 0., 0.,
          1.53846160e-01, 0., 1.30434781e-01, 0., 8.33333284e-02, 0., 0.,
          0., 7.35294104e-01, 0., 0., 8.95522460e-02, 0., 0., 0., 0.,
          2.77777761e-02, 0., 0., 0., 3.44827585e-02, 7.14285672e-02, 0.,
          0., 2.77777761e-02, 0., 0., 1.25000000e-01, 0., 3.03030312e-02,
          1.35135144e-01, 0., 0., 0., 0., 1.85185194e-01, 1.57894745e-01,
          8.33333284e-02, 2.22222239e-01, 0., 3.71428549e-01,
          2.81690136e-02, 0., 6.52173877e-01, 0., 0., 4.16666687e-01, 0.,
          0., 1.15384623e-01, 0., 7.69230798e-02, 0., 8.88888910e-02, 0.,
          0., 5.88235259e-02, 0., 9.52380896e-02, 3.68421078e-01,
          9.09090936e-02, 3.07692319e-01, 0., 0., 0., 0., 0., 0.,
          1.99999988e-01, 6.89655170e-02, 0., 0., 3.15789491e-01,
          8.82352889e-02, 0., 0., 0., 0., 0., 0., 0. ]
      - [ 0., 3.70370373e-02, 2.60869563e-01, 6.66666627e-02, 0.,
          9.99999940e-02, 0., 1.76470578e-01, 0., 0., 6.25000000e-02, 0.,
          6.89655170e-02, 1.59999996e-01, 0., 0., 4.85714287e-01, 0.,
          4.34782580e-02, 0., 0., 8.69565159e-02, 0., 0., 6.92307711e-01,
          4.99999970e-02, 0., 0., 1.02040820e-01, 4.44444418e-01, 0., 0.,
          0., 1.59999996e-01, 0., 0., 0., 2.56410260e-02, 2.35294104e-01,
          0., 1.78571433e-01, 0., 1.11111104e-01, 0., 2.00000003e-01,
          1.30434781e-01, 0., 0., 0., 2.70270258e-02, 0., 0., 0.,
          3.33333313e-02, 0., 0., 0., 0., 8.33333358e-02, 0., 0.,
          1.25000000e-01, 0., 4.18604642e-01, 8.33333284e-02,
          2.50000000e-01, 0., 0., 1.92307711e-01, 0., 0., 0., 0., 0.,
          3.84615399e-02, 1.47058830e-01, 0., 0., 5.26315793e-02,
          1.81818187e-01, 0., 1.17647052e-01, 1.73913032e-01, 0., 0., 0.,
          0., 0., 0., 1.35135144e-01, 0., 0., 3.52941155e-01, 0., 0.,
          1.66666672e-01, 0., 2.85714298e-01, 0., 1.30434781e-01 ]
      - [ 0., 0., 2.17391312e-01, 6.66666627e-02, 0., 9.99999940e-02,
          1.57894745e-01, 2.35294104e-01, 1.11111104e-01, 3.84615421e-01,
          9.37500000e-02, 0., 0., 0., 0., 0., 0., 4.34782580e-02,
          8.69565159e-02, 0., 1.53846160e-01, 1.30434781e-01, 0.,
          1.25000000e-01, 0., 0., 7.14285672e-02, 0., 0., 0., 0., 0., 0.,
          1.20000005e-01, 0., 0., 0., 2.56410260e-02, 5.88235259e-02, 0.,
          3.57142836e-02, 0., 0., 0., 0., 4.34782580e-02, 0.,
          4.70588207e-01, 0., 8.10810849e-02, 0., 0., 1.99999988e-01,
          6.66666627e-02, 0., 0., 8.33333284e-02, 0., 2.77777761e-02, 0.,
          0., 1.66666657e-01, 0., 2.32558139e-02, 6.66666627e-01, 0., 0.,
          6.00000024e-01, 3.84615421e-01, 8.69565159e-02, 1.53846160e-01,
          0., 0., 0., 0., 0., 1.66666657e-01, 1.42857149e-01, 0., 0., 0.,
          5.88235319e-01, 0., 3.27868834e-02, 2.72727281e-01,
          4.39999998e-01, 0., 0., 0., 0., 0., 0., 7.35294104e-01, 0., 0.,
          2.66666651e-01, 0., 3.80952358e-01, 0., 2.17391290e-02 ]
      - [ 0., 1.11111119e-01, 0., 1.33333325e-01, 0., 0., 1.57894745e-01,
          0., 0., 3.07692319e-01, 9.37500000e-02, 0., 0., 1.59999996e-01,
          0., 0., 0., 8.69565159e-02, 0., 3.84615399e-02, 0., 0., 0.,
          1.25000000e-01, 1.53846160e-01, 0., 0., 0., 0., 0., 0., 0., 0.,
          0., 1.66666672e-01, 0., 1.11111104e-01, 0., 2.94117659e-01, 0.,
          0., 0., 5.55555522e-02, 0., 0., 5.65217376e-01, 0., 0., 0.,
          2.97297299e-01, 0., 1.11111104e-01, 1.99999988e-01,
          5.00000000e-01, 0., 0., 0., 0., 0., 1.14285707e-01, 0., 0., 0.,
          0., 0., 0., 0., 0., 0., 0., 4.87179488e-01, 0., 1.11111119e-01,
          3.87096792e-01, 2.30769247e-01, 0., 0., 0., 8.42105269e-01, 0.,
          0., 4.70588207e-01, 0., 0., 1.36363640e-01, 2.80000001e-01, 0.,
          0., 0., 0., 0., 0., 0., 0., 3.03030312e-02, 1.33333325e-01,
          7.50000000e-01, 3.33333343e-01, 0., 0. ]
      - [ 0., 3.70370373e-02, 0., 2.66666651e-01, 0., 2.99999982e-01,
          1.57894745e-01, 2.94117659e-01, 1.11111104e-01, 0., 0., 0., 0.,
          0., 0., 0., 0., 4.34782624e-01, 0., 0., 7.69230798e-02,
          4.78260845e-01, 0., 2.91666687e-01, 0., 0., 0., 0., 0.,
          2.77777761e-02, 0., 0., 0., 0., 2.33333334e-01, 0.,
          1.11111104e-01, 0., 3.52941155e-01, 0., 0., 0., 0.,
          1.94444448e-01, 0., 0., 0., 0., 0., 0., 0., 0., 4.99999970e-02,
          0., 1.85185194e-01, 7.89473727e-02, 8.33333284e-02, 0., 0., 0.,
          0., 0., 0., 0., 3.33333313e-01, 0., 0., 4.39999998e-01,
          5.00000000e-01, 1.73913032e-01, 0., 0., 0., 3.22580636e-02,
          1.92307711e-01, 0., 0., 0., 2.10526317e-01, 0., 0., 0., 0.,
          2.78688520e-01, 1.36363640e-01, 0., 0., 0., 3.79310340e-01, 0.,
          0., 3.15789491e-01, 2.64705867e-01, 0., 2.72727281e-01,
          1.66666672e-01, 0., 3.33333343e-01, 0., 8.69565159e-02 ]
      - [ 0., 1.48148149e-01, 0., 0., 0., 0., 1.57894745e-01, 0., 0., 0.,
          9.37500000e-02, 0., 0., 3.99999991e-02, 0., 0., 0.,
          4.34782624e-01, 5.21739125e-01, 0., 0., 3.04347843e-01,
          8.33333284e-02, 1.66666657e-01, 0., 1.49999991e-01, 0., 0., 0.,
          0., 0., 0., 1.99999988e-01, 0., 3.33333343e-01, 0., 0., 0.,
          2.35294104e-01, 1.37931034e-01, 0., 0., 0., 5.55555522e-02, 0.,
          0., 0., 0., 1.51515156e-01, 3.24324340e-01, 0., 0.,
          1.49999991e-01, 3.33333313e-02, 1.11111119e-01, 0., 0., 0., 0.,
          0., 0., 1.25000000e-01, 0., 0., 4.16666687e-01, 0., 0.,
          2.80000001e-01, 0., 3.47826064e-01, 2.56410260e-02,
          9.52380896e-02, 2.22222228e-02, 9.67741981e-02, 3.84615399e-02,
          0., 0., 4.76190448e-02, 2.63157904e-01, 0., 0., 0., 0.,
          2.45901644e-01, 4.54545468e-02, 0., 1.42857134e-01, 0.,
          1.37931034e-01, 0., 0., 2.63157904e-01, 0., 0., 1.81818187e-01,
          3.33333343e-01, 8.33333284e-02, 3.80952358e-01, 0.,
          8.69565159e-02 ]
      - [ 0., 1.11111119e-01, 0., 0., 0., 0., 0., 5.29411733e-01,
          1.11111104e-01, 3.84615421e-01, 1.25000000e-01, 4.65116277e-02,
          0., 2.40000010e-01, 0., 0., 0., 1.73913032e-01, 2.60869563e-01,
          0., 7.69230798e-02, 3.04347843e-01, 0., 2.08333343e-01,
          7.69230798e-02, 0., 3.57142866e-01, 0., 0., 0., 0., 0., 0., 0.,
          1.00000001e-01, 0., 3.33333343e-01, 0., 0., 0., 0., 0.,
          5.55555522e-02, 5.55555522e-02, 0., 3.91304344e-01, 0., 0.,
          6.06060624e-02, 4.59459484e-01, 0., 1.11111104e-01,
          2.99999982e-01, 2.66666651e-01, 0., 0., 0., 2.22222228e-02, 0.,
          0., 0., 0., 2.17391312e-01, 2.32558139e-02, 0., 0., 0.,
          7.99999982e-02, 1.53846160e-01, 8.69565159e-02, 3.58974397e-01,
          0., 0., 3.22580636e-02, 7.69230798e-02, 0., 0., 9.52380896e-02,
          0., 0., 0., 1.76470578e-01, 0., 0., 1.36363640e-01,
          1.20000005e-01, 0., 0., 3.44827585e-02, 0., 0., 0.,
          8.82352889e-02, 5.88235259e-02, 3.63636374e-01, 0.,
          5.41666627e-01, 1.90476179e-01, 0., 0. ]
      - [ 0., 4.44444478e-01, 1.30434781e-01, 0., 0., 0., 2.63157904e-01,
          0., 5.55555522e-02, 0., 4.68750000e-01, 2.32558146e-01, 0., 0.,
          1.81818195e-02, 2.72727281e-01, 0., 2.17391312e-01, 0.,
          3.84615399e-02, 0., 0., 0., 1.25000000e-01, 0., 2.99999982e-01,
          1.42857134e-01, 3.82352918e-01, 0., 0., 1.19402990e-01, 0., 0.,
          0., 0., 0., 0., 0., 0., 0., 3.57142836e-02, 0., 0., 0.,
          3.33333313e-02, 0., 0., 0., 6.06060624e-02, 0., 0., 0., 0., 0.,
          2.22222239e-01, 3.68421078e-01, 0., 8.88888910e-02, 0., 0.,
          2.81690136e-02, 1.66666657e-01, 1.30434781e-01, 0., 0., 0., 0.,
          2.00000003e-01, 0., 5.65217376e-01, 2.56410271e-01, 0., 0., 0.,
          0., 3.82352918e-01, 0., 0., 0., 0., 0., 0., 0., 3.27868834e-02,
          0., 0., 0., 1.99999988e-01, 0., 0., 7.69230798e-02,
          1.05263159e-01, 0., 0., 0., 4.66666669e-01, 0., 1.42857149e-01,
          0., 8.69565159e-02 ]
      - [ 0., 7.40740746e-02, 1.73913032e-01, 0., 0., 0., 0.,
          6.47058785e-01, 0., 7.69230798e-02, 1.56250015e-01, 0., 0.,
          2.40000010e-01, 0., 0., 0., 0., 1.73913032e-01, 1.92307711e-01,
          0., 0., 0., 0., 6.92307711e-01, 2.50000000e-01, 0., 0., 0., 0.,
          0., 1.53846160e-01, 0., 7.99999982e-02, 1.33333325e-01,
          1.38888896e-01, 0., 0., 1.17647052e-01, 0., 0., 0., 0., 0., 0.,
          3.47826064e-01, 0., 7.05882311e-01, 0., 0., 0., 0.,
          3.99999976e-01, 3.33333313e-02, 0., 0., 0., 2.22222228e-02, 0.,
          0., 0., 1.66666657e-01, 0., 1.86046511e-01, 8.33333284e-02, 0.,
          0., 1.59999996e-01, 2.69230783e-01, 0., 1.02564104e-01, 0., 0.,
          3.22580636e-02, 0., 0., 0., 0., 0., 0., 0., 8.82352889e-01, 0.,
          0., 1.36363640e-01, 7.99999982e-02, 0., 0., 0., 1.62162170e-01,
          0., 0., 3.23529392e-01, 0., 0., 1.33333325e-01, 4.16666642e-02,
          5.71428597e-01, 0., 0. ]
      - [ 0., 0., 0., 0., 0., 0., 0., 5.88235259e-02, 1.11111104e-01, 0.,
          0., 1.62790701e-01, 5.17241359e-02, 0., 3.27272743e-01, 0., 0.,
          0., 1.73913032e-01, 0., 0., 8.69565159e-02, 0., 4.16666642e-02,
          0., 0., 0., 0., 0., 0., 5.97014949e-02, 0., 1.99999988e-01, 0.,
          0., 0., 1.11111104e-01, 0., 0., 0., 4.64285672e-01,
          3.86363655e-01, 0., 2.50000000e-01, 0., 0., 7.49999955e-02, 0.,
          1.51515156e-01, 0., 0., 0., 0., 0., 0., 0., 0., 4.44444455e-02,
          1.38888896e-01, 2.28571415e-01, 0., 0., 1.30434781e-01,
          1.39534891e-01, 0., 4.16666687e-01, 1.53846160e-01,
          1.59999996e-01, 1.15384623e-01, 0., 0., 0., 0., 0.,
          1.15384623e-01, 5.88235259e-02, 8.33333284e-02, 0.,
          2.63157904e-01, 0., 0., 0., 0., 2.13114753e-01, 0., 0.,
          2.14285702e-01, 0., 3.44827585e-02, 2.70270258e-02,
          3.07692319e-01, 0., 0., 1.76470578e-01, 9.09090936e-02, 0., 0.,
          0., 9.99999940e-02, 4.56521720e-01 ]
      - [ 1.05263159e-01, 1.85185194e-01, 8.69565159e-02, 0., 0., 0.,
          5.26315793e-02, 0., 5.55555522e-02, 4.61538494e-01,
          3.43750000e-01, 0., 0., 3.19999993e-01, 0., 0., 8.57142881e-02,
          0., 0., 0., 0., 0., 1.45833343e-01, 0., 7.69230798e-02,
          5.99999964e-01, 3.57142836e-02, 1.76470578e-01, 0., 0., 0.,
          7.69230798e-02, 0., 1.99999996e-02, 3.00000012e-01,
          2.22222209e-01, 0., 1.28205135e-01, 5.88235259e-02,
          1.03448272e-01, 0., 0., 0., 0., 0., 0., 0., 0., 0., 0., 0., 0.,
          1.99999988e-01, 2.00000003e-01, 2.59259284e-01, 5.26315793e-02,
          0., 0., 0., 0., 1.40845068e-02, 1.66666657e-01, 8.69565159e-02,
          0., 8.33333284e-02, 0., 2.69230783e-01, 1.20000005e-01,
          3.84615399e-02, 2.60869563e-01, 2.05128208e-01, 0., 0.,
          2.25806460e-01, 0., 2.94117630e-02, 1.66666657e-01, 0., 0., 0.,
          0., 2.94117659e-01, 0., 0., 0., 0., 0., 0., 0., 5.40540516e-02,
          0., 2.10526317e-01, 0., 0., 3.03030312e-02, 4.00000006e-01,
          8.33333284e-02, 4.76190478e-01, 0., 0. ]
      - [ 1.57894745e-01, 0., 1.30434781e-01, 0., 5.88235259e-02, 0.,
          5.26315793e-02, 0., 1.11111104e-01, 0., 0., 2.79069781e-01, 0.,
          0., 0., 0., 2.85714269e-02, 0., 5.21739125e-01, 7.69230798e-02,
          7.69230798e-02, 0., 0., 0., 1.15384623e-01, 0., 1.78571433e-01,
          0., 0., 0., 2.98507474e-02, 0., 0., 0., 0., 0., 1.11111104e-01,
          5.12820520e-02, 0., 0., 2.14285702e-01, 0., 0., 0.,
          2.66666651e-01, 0., 0., 0., 1.81818187e-01, 0., 1.33333325e-01,
          3.33333343e-01, 0., 1.33333325e-01, 0., 2.63157904e-01, 0.,
          2.88888901e-01, 0., 0., 0., 8.33333284e-02, 4.78260845e-01, 0.,
          2.91666687e-01, 0., 0., 1.20000005e-01, 1.92307711e-01, 0.,
          1.02564104e-01, 1.42857149e-01, 0., 0., 0., 8.82352889e-02, 0.,
          4.76190448e-02, 0., 0., 0., 0., 4.78260845e-01, 0., 0.,
          3.99999991e-02, 0., 9.99999940e-02, 6.89655170e-02, 0., 0.,
          2.63157904e-01, 4.41176444e-01, 0., 9.09090936e-02,
          2.00000003e-01, 0., 3.33333343e-01, 0., 0. ]
      - [ 0., 7.40740746e-02, 8.69565159e-02, 0., 0., 0., 2.10526317e-01,
          5.88235259e-02, 0., 3.07692319e-01, 2.18750015e-01, 0.,
          6.89655170e-02, 2.80000001e-01, 5.45454584e-02, 0., 0., 0.,
          6.52173877e-01, 0., 0., 0., 1.66666657e-01, 0., 2.30769247e-01,
          0., 0., 0., 0., 0., 1.34328365e-01, 7.69230798e-02, 0.,
          6.00000024e-02, 0., 0., 0., 5.12820542e-01, 2.35294104e-01, 0.,
          0., 2.27272734e-02, 0., 0., 2.00000003e-01, 0., 0., 0., 0.,
          2.70270258e-02, 0., 0., 0., 0., 0., 0., 0., 0., 1.11111104e-01,
          0., 0., 2.91666687e-01, 1.73913032e-01, 3.02325577e-01, 0., 0.,
          1.53846160e-01, 0., 6.15384638e-01, 0., 0., 0., 4.44444455e-02,
          9.67741981e-02, 0., 0., 0., 0., 5.26315793e-02, 0., 0., 0.,
          8.69565159e-02, 1.14754103e-01, 9.09090936e-02, 0., 0., 0., 0.,
          0., 0., 0., 4.11764711e-01, 0., 0., 3.33333313e-02, 0.,
          2.38095239e-01, 0., 2.17391290e-02 ]
      - [ 4.73684222e-01, 0., 5.21739125e-01, 0., 0., 0., 1.05263159e-01,
          1.76470578e-01, 0., 0., 2.18750015e-01, 9.30232555e-02, 0., 0.,
          0., 0., 0., 2.17391312e-01, 0., 4.61538494e-01, 0.,
          1.30434781e-01, 0., 2.91666687e-01, 0., 0., 1.42857134e-01, 0.,
          0., 0., 0., 0., 0., 0., 2.33333334e-01, 0., 0., 0.,
          1.76470578e-01, 3.44827585e-02, 0., 0., 0., 0., 1.00000001e-01,
          0., 0., 0., 0., 0., 0., 0., 0., 0., 2.59259284e-01,
          1.05263159e-01, 0., 1.55555561e-01, 0., 1.71428576e-01, 0., 0.,
          3.91304344e-01, 0., 0., 0., 0., 3.19999993e-01, 0.,
          1.73913032e-01, 0., 0., 0., 6.45161271e-02, 3.84615399e-02, 0.,
          0., 3.80952358e-01, 1.57894745e-01, 0., 0., 0., 0., 0.,
          7.27272749e-01, 8.40000033e-01, 0., 0., 1.72413796e-01, 0., 0.,
          1.05263159e-01, 0., 0., 0., 0., 0., 5.23809493e-01, 0., 0. ]
      - [ 0., 3.70370373e-02, 0., 0., 0., 0., 0., 2.35294104e-01,
          1.11111104e-01, 0., 1.25000000e-01, 0., 0., 1.20000005e-01, 0.,
          0., 0., 0., 0., 0., 0., 4.34782580e-02, 2.70833313e-01, 0., 0.,
          9.99999940e-02, 3.57142836e-02, 0., 0., 0., 0., 0., 0.,
          1.99999996e-02, 5.33333302e-01, 0., 0., 0., 0., 0., 0., 0.,
          2.22222209e-01, 0., 0., 2.17391312e-01, 0., 2.94117659e-01,
          3.03030312e-02, 5.40540516e-02, 0., 0., 0., 1.33333325e-01, 0.,
          0., 0., 0., 0., 0., 0., 4.16666642e-02, 0., 0., 2.91666687e-01,
          0., 0., 3.60000014e-01, 7.69230798e-02, 1.73913032e-01,
          2.30769247e-01, 0., 0., 1.93548396e-01, 0., 0., 0., 0., 0., 0.,
          0., 4.11764711e-01, 0., 1.47540987e-01, 1.81818187e-01,
          2.40000010e-01, 0., 0., 1.72413796e-01, 0., 0., 2.63157904e-01,
          0., 0., 0., 8.00000012e-01, 2.50000000e-01, 8.09523821e-01, 0.,
          1.30434781e-01 ]
      - [ 0., 3.33333343e-01, 4.34782580e-02, 0., 0., 0., 0.,
          1.17647052e-01, 0., 7.69230798e-02, 9.37500000e-02, 0., 0.,
          1.20000005e-01, 2.54545480e-01, 1.81818187e-01, 1.14285707e-01,
          8.69565159e-02, 0., 3.84615421e-01, 3.07692319e-01,
          2.60869563e-01, 0., 2.08333343e-01, 3.84615421e-01, 0., 0., 0.,
          0., 0., 0., 3.07692319e-01, 9.99999940e-02, 0., 0., 0.,
          2.22222209e-01, 0., 0., 0., 0., 1.59090921e-01, 0.,
          1.38888896e-01, 0., 0., 4.99999970e-02, 0., 0., 0., 0., 0., 0.,
          3.33333343e-01, 0., 0., 0., 0., 0., 5.71428537e-02, 0., 0., 0.,
          0., 0., 3.33333313e-01, 3.84615399e-02, 0., 0., 0.,
          2.56410271e-01, 0., 0., 0., 2.69230783e-01, 0., 0.,
          1.42857149e-01, 0., 0., 0., 1.17647052e-01, 0., 0.,
          1.81818187e-01, 2.40000010e-01, 2.14285702e-01, 0., 0., 0.,
          7.69230798e-02, 0., 0., 0., 7.57575750e-01, 6.66666627e-02,
          4.58333313e-01, 0., 0., 0. ]
      - [ 0., 1.11111119e-01, 0., 0., 0., 0., 0., 0., 1.66666672e-01, 0.,
          3.12500000e-02, 0., 6.89655170e-02, 0., 1.09090917e-01,
          1.81818187e-01, 0., 0., 4.34782580e-02, 3.46153855e-01, 0.,
          8.69565159e-02, 0., 0., 2.30769247e-01, 0., 0., 4.11764711e-01,
          0., 0., 1.49253737e-02, 4.35897470e-01, 9.99999940e-02,
          2.00000003e-01, 0., 2.77777761e-02, 0., 0., 0., 1.03448272e-01,
          1.07142851e-01, 1.59090921e-01, 0., 2.77777761e-02, 0., 0., 0.,
          3.52941155e-01, 0., 8.10810849e-02, 0., 1.11111104e-01, 0., 0.,
          0., 0., 8.33333284e-02, 6.66666701e-02, 1.66666672e-01, 0., 0.,
          0., 2.17391312e-01, 1.62790701e-01, 0., 2.50000000e-01, 0.,
          3.60000014e-01, 2.30769247e-01, 0., 7.69230798e-02, 0.,
          1.77777782e-01, 0., 0., 1.47058830e-01, 0., 2.85714298e-01,
          1.57894745e-01, 0., 3.07692319e-01, 5.88235259e-02, 0., 0., 0.,
          0., 0., 0., 0., 0., 0., 0., 8.82352889e-02, 5.88235259e-02, 0.,
          6.66666627e-02, 8.33333284e-02, 0., 2.99999982e-01, 0. ]
      - [ 0., 1.48148149e-01, 4.34782580e-02, 0., 0., 0., 1.57894745e-01,
          1.76470578e-01, 5.55555522e-02, 4.61538494e-01, 0., 0., 0.,
          1.20000005e-01, 0., 0., 0., 4.34782580e-02, 4.78260845e-01, 0.,
          0., 4.34782580e-02, 0., 0., 0., 0., 3.57142836e-02, 0., 0., 0.,
          0., 0., 0., 1.00000001e-01, 3.00000012e-01, 0., 0., 0.,
          2.94117659e-01, 0., 1.07142851e-01, 0., 0., 0., 1.00000001e-01,
          8.69565159e-02, 2.49999985e-02, 5.88235319e-01, 1.81818187e-01,
          5.40540516e-02, 0., 0., 0., 3.33333313e-02, 0., 0., 0.,
          2.22222228e-02, 0., 0., 0., 0., 2.60869563e-01, 4.65116277e-02,
          2.08333343e-01, 0., 0., 2.80000001e-01, 7.69230798e-02,
          3.04347843e-01, 7.69230798e-02, 0., 0., 4.19354826e-01, 0., 0.,
          1.66666657e-01, 1.42857149e-01, 1.57894745e-01, 0., 0.,
          2.35294104e-01, 0., 3.27868849e-01, 9.09090936e-02, 0., 0., 0.,
          1.03448272e-01, 0., 0., 3.68421078e-01, 0., 0., 0.,
          3.00000012e-01, 2.91666687e-01, 3.33333343e-01, 0.,
          2.17391290e-02 ]
      - [ 0., 3.33333343e-01, 0., 0., 0., 0., 1.05263159e-01,
          1.17647052e-01, 0., 2.30769247e-01, 0., 0., 0., 2.00000003e-01,
          1.81818195e-02, 0., 4.00000006e-01, 1.73913032e-01, 0.,
          1.15384623e-01, 0., 1.73913032e-01, 0., 1.25000000e-01, 1., 0.,
          0., 0., 0., 5.55555522e-02, 0., 1.53846160e-01, 0.,
          1.00000001e-01, 2.33333334e-01, 1.38888896e-01, 0., 0.,
          5.88235259e-02, 1.37931034e-01, 0., 0., 5.55555522e-02, 0., 0.,
          3.91304344e-01, 7.49999955e-02, 4.70588207e-01, 0., 0., 0., 0.,
          4.99999970e-02, 1.66666672e-01, 0., 0., 0., 0., 5.55555522e-02,
          0., 2.81690136e-02, 8.33333284e-02, 0., 4.65116277e-02,
          1.25000000e-01, 0., 0., 3.19999993e-01, 1.15384623e-01, 0., 0.,
          0., 0., 2.25806460e-01, 0., 0., 0., 0., 0., 0., 0.,
          6.47058785e-01, 0., 0., 1.36363640e-01, 2.00000003e-01, 0.,
          9.99999940e-02, 0., 2.70270258e-02, 0., 0., 0., 0.,
          1.81818187e-01, 0., 0., 3.33333343e-01, 0., 0. ]
      - [ 1.05263159e-01, 0., 1.30434781e-01, 0., 0., 0., 1.57894745e-01,
          1.76470578e-01, 5.55555522e-02, 3.07692319e-01, 3.12500000e-02,
          0., 0., 7.99999982e-02, 1.81818195e-02, 0., 0., 8.69565159e-02,
          0., 3.84615421e-01, 0., 2.17391312e-01, 0., 2.91666687e-01, 0.,
          0., 5.71428537e-01, 8.82352889e-02, 0., 0., 0., 0., 0.,
          3.99999991e-02, 1.00000001e-01, 0., 0., 0., 1.76470578e-01, 0.,
          2.14285702e-01, 0., 0., 0., 0., 0., 0., 2.94117659e-01,
          6.06060624e-02, 0., 0., 0., 0., 0., 3.70370373e-02, 0., 0., 0.,
          0., 0., 0., 0., 7.39130437e-01, 2.32558139e-02, 0., 0.,
          3.84615399e-02, 1.59999996e-01, 0., 0., 0., 0., 0., 0., 0., 0.,
          1.66666657e-01, 1.42857149e-01, 0., 9.09090936e-02, 0.,
          2.94117659e-01, 0., 1.14754103e-01, 4.09090906e-01,
          4.00000006e-01, 0., 1.99999988e-01, 7.24137902e-01, 0.,
          1.53846160e-01, 5.26315793e-02, 0., 5.88235259e-02, 0.,
          3.33333313e-02, 0., 0., 0., 5.00000000e-01 ]
      - [ 0., 0., 1.30434781e-01, 6.66666627e-02, 0., 1.99999988e-01,
          1.57894745e-01, 0., 3.33333343e-01, 0., 1.25000000e-01, 0., 0.,
          0., 0., 0., 0., 4.34782580e-02, 3.91304344e-01, 0.,
          7.69230798e-02, 0., 2.50000000e-01, 1.66666657e-01, 0., 0.,
          3.57142836e-02, 0., 0., 0., 0., 0., 0., 0., 0., 8.33333358e-02,
          0., 0., 1.17647052e-01, 0., 0., 0., 0., 0., 6.66666627e-02, 0.,
